<?xml version="1.0"?>
<opencv_storage>
<my_svm type_id="opencv-ml-svm">
  <svm_type>C_SVC</svm_type>
  <kernel><type>LINEAR</type></kernel>
  <C>1.</C>
  <term_criteria><epsilon>2.2204460492503131e-16</epsilon>
    <iterations>100</iterations></term_criteria>
  <var_all>256</var_all>
  <var_count>256</var_count>
  <class_count>44</class_count>
  <class_labels type_id="opencv-matrix">
    <rows>1</rows>
    <cols>44</cols>
    <dt>i</dt>
    <data>
      0 1 2 3 4 5 6 7 8 9 10 11 12 13 14 15 16 17 18 19 20 21 22 23 24
      25 26 27 28 29 30 31 32 33 34 35 36 37 38 39 40 41 42 43</data></class_labels>
  <sv_total>946</sv_total>
  <support_vectors>
    <_>
      7.25355858e-05 7.50797844e-05 7.92430219e-05 5.77725223e-05
      1.80541610e-05 1.11154359e-05 2.68735448e-06 1.35525272e-20
      1.35525272e-20 -4.88266505e-06 -1.15504872e-05 -3.71561582e-05
      -6.50554211e-05 -7.87892204e-05 -6.49297290e-05 -1.77868515e-05
      2.46710260e-06 8.94103869e-06 2.06564364e-05 4.65192425e-05
      8.36224062e-05 8.36224062e-05 8.05385280e-05 2.73358746e-05
      -6.98199219e-05 -8.15391177e-05 -8.36224062e-05 -8.17126784e-05
      -5.49402794e-05 -1.99022161e-05 -8.45607065e-06 1.35525272e-20
      1.35525272e-20 1.35525272e-20 1.35525272e-20 8.09518042e-06
      8.40225584e-06 -9.89304590e-06 -1.29887412e-05 -6.16085526e-06 0.
      2.98850609e-05 -1.13188953e-05 -7.10101449e-06 1.35525272e-20
      1.35525272e-20 1.35525272e-20 1.35525272e-20 1.35525272e-20
      1.35525272e-20 -6.94431264e-07 -3.81944592e-05 -7.05056809e-05
      -7.51408152e-05 -5.65671289e-05 -5.14005478e-06 2.13391104e-05
      6.69560613e-05 7.86111050e-05 7.17494768e-05 4.99146408e-05
      1.78221580e-05 1.35525272e-20 1.35525272e-20 1.35525272e-20
      1.35525272e-20 -3.91976901e-05 -7.43633282e-05 -8.36224062e-05
      -6.68592038e-05 -2.64294504e-05 -8.00637827e-06 2.20511647e-05
      4.13461967e-05 8.36224062e-05 8.36224062e-05 7.85387383e-05
      6.93496986e-05 4.21932709e-05 1.35525272e-20 1.35525272e-20
      -5.68865580e-05 -8.36224062e-05 -8.36224062e-05 -5.98568513e-05
      -2.95133286e-05 -1.41485070e-05 -1.81356131e-06 5.13246641e-06
      2.08756119e-05 3.11489166e-05 7.51246771e-05 8.36224062e-05
      8.17720793e-05 4.99614180e-05 1.35525272e-20 -5.78127147e-05
      -6.90393499e-05 -8.36224062e-05 -8.36224062e-05 -5.96091813e-05
      -2.81337434e-05 -1.23189102e-05 1.35525272e-20 1.35525272e-20
      1.35525272e-20 1.03318816e-05 7.14750277e-05 8.36224062e-05
      8.36224062e-05 7.63993376e-05 5.81292152e-05 -8.36224062e-05
      -8.36224062e-05 -8.36224062e-05 -5.32788836e-05 -2.58344335e-05
      -1.85226309e-05 -7.81226390e-06 1.35525272e-20 1.35525272e-20
      1.35525272e-20 8.63233527e-06 2.57613337e-05 6.51398441e-05
      8.36224062e-05 8.36224062e-05 8.36224062e-05 -8.36224062e-05
      -8.36224062e-05 -8.36224062e-05 -5.32788836e-05 -2.58344335e-05
      -1.85226309e-05 -7.81226390e-06 1.35525272e-20 1.35525272e-20
      1.35525272e-20 8.63233527e-06 2.57613337e-05 6.51398441e-05
      8.36224062e-05 8.36224062e-05 8.36224062e-05 -6.80676312e-05
      -7.48336097e-05 -8.36224062e-05 -8.36224062e-05 -5.96091813e-05
      -2.81337434e-05 -1.23189102e-05 1.35525272e-20 1.35525272e-20
      3.76229627e-06 1.83555549e-05 7.41239928e-05 8.36224062e-05
      8.36224062e-05 8.36224062e-05 8.36224062e-05 1.35525272e-20
      -5.59100263e-05 -8.15298408e-05 -8.29248820e-05 -5.98568513e-05
      -2.95133286e-05 -1.41485070e-05 -1.81356131e-06 5.13246641e-06
      2.08756119e-05 3.11489166e-05 7.51246771e-05 8.36224062e-05
      8.17720793e-05 4.99614180e-05 1.35525272e-20 1.35525272e-20
      -3.21903281e-06 -4.60496340e-05 -7.66626326e-05 -8.36224062e-05
      -6.68592038e-05 -2.64294504e-05 -9.15810142e-06 1.70987532e-05
      2.70564178e-05 3.60351150e-05 7.59744507e-05 7.85387383e-05
      7.16865761e-05 4.60172523e-05 1.35525272e-20 1.35525272e-20
      1.35525272e-20 -2.75917102e-07 -3.35908044e-05 -6.59717771e-05
      -7.47222948e-05 -5.84768604e-05 -1.38609648e-05 2.42894548e-05
      6.94393093e-05 8.36224062e-05 8.36224062e-05 3.46650304e-05
      6.14252428e-07 1.35525272e-20 1.35525272e-20 1.35525272e-20
      1.35525272e-20 1.35525272e-20 1.35525272e-20 2.14674469e-06
      8.84351721e-06 2.37346012e-05 0. 0. 3.67682806e-05 1.10706760e-05
      -2.24262931e-06 1.35525272e-20 1.35525272e-20 1.35525272e-20
      1.35525272e-20 1.35525272e-20 7.32200306e-06 2.04251446e-05
      4.65192425e-05 8.35453102e-05 8.21575668e-05 7.98806432e-05
      3.99525961e-05 -5.05356766e-05 -7.40034811e-05 -8.36224062e-05
      -8.17126784e-05 -5.49402794e-05 -1.99022161e-05 -9.64186074e-06
      -2.23207553e-06 7.38327581e-05 7.81325289e-05 8.36224062e-05
      6.80745725e-05 3.85924286e-05 7.39669485e-06 2.68735448e-06
      1.35525272e-20 1.35525272e-20 1.35525272e-20 -1.43330249e-06
      -3.67273969e-05 -6.94700939e-05 -8.32038932e-05 -7.03701735e-05
      -3.53778269e-05</_>
    <_>
      1.49638436e-05 6.89082080e-05 2.87306593e-05 1.24530322e-06
      2.37169225e-20 2.37169225e-20 2.37169225e-20 2.37169225e-20
      2.37169225e-20 2.37169225e-20 -1.11014815e-05 -4.40607437e-05
      -6.33797463e-05 -4.53696557e-05 5.32563217e-06 -8.19477009e-06
      6.39992286e-05 8.69976211e-05 7.73407592e-05 2.38958073e-05
      2.37169225e-20 2.37169225e-20 2.37169225e-20 -2.84656107e-06
      -5.39485009e-05 -7.94877997e-05 -8.61813387e-05 -8.53964302e-05
      -4.17526062e-05 3.94651179e-05 7.18147130e-05 8.56915649e-05
      1.96226574e-05 7.67676611e-05 8.69976211e-05 7.40972609e-05
      1.96027631e-05 -5.25690448e-05 -8.69976211e-05 -8.69976211e-05
      -8.69976211e-05 -5.01702380e-05 -3.68961009e-05 -2.52466234e-05
      6.00571475e-05 8.69976211e-05 8.69976211e-05 4.31891312e-05
      1.92386938e-06 3.39317594e-05 7.84044532e-05 4.17877236e-05
      -4.97686415e-06 -5.62576206e-05 -7.84579388e-05 -4.16305556e-05
      -3.46105007e-05 -2.07336489e-05 -1.01219384e-05 6.62479797e-05
      8.69976211e-05 8.69976211e-05 3.99128476e-05 2.11469705e-06
      2.37169225e-20 3.92869924e-06 1.89234186e-06 1.51942386e-05
      -3.80047680e-07 1.95639529e-07 -2.32857037e-05 -4.16305556e-05
      -3.00393021e-05 -1.41109092e-06 6.91963141e-05 8.63156238e-05
      8.47451738e-05 4.52341119e-05 2.04599201e-06 2.37169225e-20
      2.37169225e-20 -5.11940052e-05 -7.84024305e-05 -6.61818631e-05
      8.85402005e-06 4.53670691e-05 2.23306106e-05 -3.73102921e-06
      8.02348040e-06 5.74308797e-05 8.69976211e-05 8.39261047e-05
      5.09628917e-05 2.37169225e-20 2.37169225e-20 2.37169225e-20
      -6.74067705e-05 -7.42635675e-05 -8.52017911e-05 -8.30689241e-05
      -4.41185221e-05 2.88876181e-05 5.05029966e-05 3.97389886e-05
      5.14934982e-05 8.56032639e-05 8.69976211e-05 4.46844715e-05
      2.37169225e-20 2.37169225e-20 2.37169225e-20 2.37169225e-20
      -8.69976211e-05 -8.69976211e-05 -8.69976211e-05 -6.15564786e-05
      -3.99468263e-05 -2.33713472e-05 4.03441263e-05 7.52431151e-05
      8.69976211e-05 8.69976211e-05 3.39018370e-05 2.59158969e-06
      2.37169225e-20 2.37169225e-20 2.37169225e-20 2.37169225e-20
      -8.69976211e-05 -8.69976211e-05 -8.69976211e-05 -6.15564786e-05
      -4.16305556e-05 -3.07229893e-05 3.25693545e-05 7.52431151e-05
      8.69976211e-05 7.92228529e-05 2.76652445e-05 2.37169225e-20
      2.37169225e-20 2.37169225e-20 2.37169225e-20 2.37169225e-20
      -6.74067705e-05 -7.42635675e-05 -8.52017911e-05 -8.69976211e-05
      -5.06634206e-05 1.12116777e-05 4.90329621e-05 6.72571696e-05
      7.46791411e-05 8.25370298e-05 5.22204500e-05 1.65861820e-05
      2.37169225e-20 2.37169225e-20 2.37169225e-20 2.37169225e-20
      2.37169225e-20 -5.11940052e-05 -8.30794525e-05 -7.24687852e-05
      -1.53590136e-05 4.46850718e-05 4.47304810e-05 3.46991110e-05
      1.26587938e-05 6.88093714e-05 8.59355787e-05 5.33726270e-05
      2.15006075e-05 2.37169225e-20 2.37169225e-20 2.37169225e-20
      2.37169225e-20 -1.30605658e-05 -5.10673235e-05 -3.65785745e-05
      -3.31989213e-07 1.26215218e-05 -5.13948635e-06 -3.79477679e-05
      -3.00393021e-05 7.73702686e-06 6.70241861e-05 8.69976211e-05
      5.54192920e-05 2.49105924e-05 2.37169225e-20 2.37169225e-20
      6.14303076e-07 1.52698649e-05 5.18163870e-05 3.89233355e-05
      -3.84499936e-06 -4.32471170e-05 -7.14659618e-05 -4.96365064e-05
      -3.51442286e-05 -2.07336489e-05 1.76698304e-05 8.29552009e-05
      8.69976211e-05 7.84044532e-05 2.39541114e-05 2.81857956e-06
      2.50480043e-05 7.06296851e-05 8.08596451e-05 7.40972609e-05
      4.46324884e-05 -2.08119691e-05 -6.61821468e-05 -8.69976211e-05
      -8.69976211e-05 -5.01702380e-05 -3.68961009e-05 8.26028372e-06
      6.81689125e-05 8.69976211e-05 7.67676611e-05 3.59933765e-05
      7.84044532e-05 8.69976211e-05 7.63170683e-05 4.49690124e-05
      8.59316606e-06 2.37169225e-20 2.37169225e-20 -2.84656107e-06
      -5.42750167e-05 -8.04673400e-05 -8.69976211e-05 -8.34650564e-05
      -3.44539112e-05 3.84414270e-05 7.18147130e-05 7.70983970e-05
      4.26439947e-05 5.52407764e-05 4.65568337e-05 7.91513503e-06
      2.37169225e-20 2.37169225e-20 2.37169225e-20 2.37169225e-20
      2.37169225e-20 2.37169225e-20 -1.11014815e-05 -4.40607437e-05
      -6.72473834e-05 -3.25394431e-05 1.08243160e-06 -1.02288104e-05</_>
    <_>
      -2.54109884e-20 -2.54109884e-20 -2.54109884e-20 -2.54109884e-20
      -2.54109884e-20 -2.54109884e-20 7.71634518e-07 3.01165110e-05
      9.12983378e-05 -1.38744281e-05 -3.18051279e-05 -6.43843596e-05
      -1.05026011e-04 -1.30407323e-04 -1.14624185e-04 -5.05425596e-05
      -2.54109884e-20 -2.54109884e-20 -2.54109884e-20 -2.54109884e-20
      -2.54109884e-20 -2.54109884e-20 2.05769220e-06 7.97657194e-05
      -1.91290601e-05 -1.30293629e-04 -1.34383983e-04 -1.31686189e-04
      -9.63809725e-05 -5.18781962e-05 -2.26055836e-05 -2.54109884e-20
      -2.54109884e-20 -2.54109884e-20 -2.54109884e-20 -2.54109884e-20
      -1.69603754e-05 -5.35789150e-05 -1.10056593e-04 -4.07878870e-05
      -4.44745856e-05 -6.91534660e-05 -4.74935259e-05 -1.59069223e-05
      -2.54109884e-20 -2.54109884e-20 -2.54109884e-20 -2.54109884e-20
      -2.54109884e-20 -2.54109884e-20 -1.36345056e-06 -5.81625682e-05
      -1.09387387e-04 -1.32111556e-04 -1.17938085e-04 3.61592938e-05
      3.24725952e-05 -3.27228117e-05 -2.54109884e-20 -2.54109884e-20
      -2.54109884e-20 -2.54109884e-20 -2.54109884e-20 -2.54109884e-20
      -2.54109884e-20 -2.54109884e-20 -5.63926151e-05 -1.16204639e-04
      -1.34383983e-04 -1.10703397e-04 -5.58889551e-05 4.70669002e-05
      7.95116430e-05 -2.54109884e-20 -2.54109884e-20 -2.54109884e-20
      -2.54109884e-20 -2.54109884e-20 -2.54109884e-20 -2.54109884e-20
      -2.54109884e-20 -8.75002079e-05 -1.34383983e-04 -1.34383983e-04
      -1.00811507e-04 -5.79466468e-05 -2.88205811e-05 8.84427354e-05
      8.87201604e-05 -2.54109884e-20 -2.54109884e-20 -2.54109884e-20
      -2.54109884e-20 -2.54109884e-20 -2.54109884e-20 -2.54109884e-20
      -8.37090702e-05 -1.05751518e-04 -1.34383983e-04 -1.34383983e-04
      -1.00820900e-04 -5.70755801e-05 -2.50445773e-05 9.41059407e-05
      9.24586420e-05 5.09848576e-07 -2.54109884e-20 -2.54109884e-20
      -2.54109884e-20 -2.54109884e-20 -2.54109884e-20 -2.54109884e-20
      -4.07878870e-05 -4.07878870e-05 -4.07878870e-05 2.07697144e-06
      3.79722987e-05 4.25889666e-05 7.13970076e-05 1.21637764e-04
      1.34383983e-04 9.61453406e-05 9.35960925e-05 9.35960925e-05
      9.35960925e-05 9.35960925e-05 9.35960925e-05 9.25158092e-05
      -4.18681739e-05 -4.07878870e-05 -4.07878870e-05 4.30817664e-07
      3.63261461e-05 4.09428139e-05 7.05224884e-05 1.21637764e-04
      1.21637764e-04 9.19499435e-05 9.19499435e-05 9.19499435e-05
      9.29273447e-05 9.35960925e-05 9.35960925e-05 9.25158092e-05
      -9.01840176e-05 -1.09410008e-04 -1.34383983e-04 -1.34383983e-04
      -1.00820900e-04 -5.70755801e-05 -2.50445773e-05 9.41059407e-05
      9.04192420e-05 -2.54109884e-20 -2.54109884e-20 -2.54109884e-20
      -2.54109884e-20 -2.54109884e-20 -2.54109884e-20 -2.54109884e-20
      -2.54109884e-20 -8.47253177e-05 -1.28437794e-04 -1.32401925e-04
      -1.00811507e-04 -5.79466468e-05 -2.88205811e-05 8.84427354e-05
      8.87201604e-05 -2.54109884e-20 -2.54109884e-20 -2.54109884e-20
      -2.54109884e-20 -2.54109884e-20 -2.54109884e-20 -2.54109884e-20
      -2.54109884e-20 -2.03249533e-06 -6.07189249e-05 -1.17656426e-04
      -1.34383983e-04 -1.10703397e-04 -5.79466468e-05 4.70669002e-05
      7.95116430e-05 -2.54109884e-20 -2.54109884e-20 -2.54109884e-20
      -2.54109884e-20 -2.54109884e-20 -2.54109884e-20 -2.54109884e-20
      -2.54109884e-20 -2.54109884e-20 -1.74213895e-07 -4.50809639e-05
      -9.65039872e-05 -1.30922330e-04 -1.22693571e-04 2.31929953e-05
      3.38381142e-05 -3.11548865e-05 -2.54109884e-20 -2.54109884e-20
      -2.54109884e-20 -2.54109884e-20 -2.54109884e-20 -2.54109884e-20
      -2.54109884e-20 -2.54109884e-20 -2.54109884e-20 -2.54109884e-20
      -2.27241753e-06 -1.73086519e-05 -7.67858292e-05 -4.07878870e-05
      -4.07878870e-05 -6.91118985e-05 -4.73712607e-05 -1.58564890e-05
      -2.54109884e-20 -2.54109884e-20 -2.54109884e-20 -2.54109884e-20
      -2.54109884e-20 -2.54109884e-20 -2.54109884e-20 -2.54109884e-20
      -2.54109884e-20 -2.54109884e-20 2.05769220e-06 7.97657194e-05
      -1.86660782e-05 -1.30293629e-04 -1.34383983e-04 -1.31686189e-04
      -9.63809725e-05 -5.18781962e-05 -2.59750868e-05 -6.34259550e-06
      -2.54109884e-20 -2.54109884e-20 -2.54109884e-20 -2.54109884e-20
      -2.54109884e-20 -2.54109884e-20 7.71634518e-07 9.35960925e-05
      9.12983378e-05 -2.54109884e-20 -2.44663147e-06 -5.65595801e-05
      -1.07813437e-04 -1.33194742e-04 -1.12221038e-04 -6.01117790e-05</_>
    <_>
      1.31598508e-05 1.21098419e-05 -6.77626358e-21 -6.77626358e-21
      -6.77626358e-21 -6.77626358e-21 -6.77626358e-21 -6.77626358e-21
      -6.77626358e-21 3.81118371e-05 1.79477283e-05 -1.55772741e-05
      -2.33959927e-05 -2.86334471e-05 -3.09456773e-05 -3.75035743e-05
      1.31598508e-05 1.21098419e-05 -6.77626358e-21 -6.77626358e-21
      -6.77626358e-21 -6.77626358e-21 -6.77626358e-21 -9.13306621e-07
      -3.43996908e-05 -3.84189698e-05 -5.05767421e-05 -5.15456632e-05
      -4.52095992e-05 -3.06833608e-05 2.00123231e-05 3.57395911e-05
      2.15614727e-05 2.18274472e-05 1.00466023e-05 1.00466023e-05
      4.87735269e-06 -4.39308533e-05 -8.01246351e-05 -8.01246351e-05
      -8.01246351e-05 -3.49795555e-05 -2.36402338e-05 -1.17789932e-05
      1.78741102e-05 4.33757778e-05 5.28536511e-05 4.33757778e-05
      3.97864715e-05 4.13816306e-05 3.17260601e-05 -1.20774212e-05
      -5.84451736e-05 -5.84451736e-05 -5.57052554e-05 -4.38893512e-05
      -3.11385156e-05 1.78304726e-05 3.71049900e-05 5.46003212e-05
      5.54899125e-05 5.54899125e-05 6.35004981e-05 5.54899125e-05
      5.83437613e-05 6.06218528e-05 4.33624446e-05 3.26926852e-06
      -3.67624198e-05 -3.22529704e-05 -2.22065955e-05 -2.22065955e-05
      -1.15289345e-06 5.58955617e-05 6.77568023e-05 6.77568023e-05
      6.77568023e-05 6.77568023e-05 7.39828538e-05 6.77568023e-05
      7.70108527e-05 4.22654011e-05 -7.68862174e-06 -1.48053659e-05
      -8.41222027e-06 -2.49542410e-07 1.16116989e-05 5.40156361e-05
      7.53658678e-05 8.01485294e-05 8.01485294e-05 8.01485294e-05
      8.01485294e-05 8.01485294e-05 8.46297044e-05 8.01485294e-05
      3.27284652e-05 2.29707948e-05 4.06582899e-07 -2.85525834e-06
      3.48080607e-06 1.17005657e-05 2.35618063e-05 6.59657453e-05
      8.73159806e-05 8.73159806e-05 8.73159806e-05 8.73159806e-05
      8.73159806e-05 8.73159806e-05 9.00126106e-05 8.73159806e-05
      -9.51752781e-07 -3.96563671e-08 -9.51752781e-07 7.21092511e-06
      1.36040708e-05 1.36040708e-05 2.54653114e-05 6.78692522e-05
      8.92194803e-05 8.92194803e-05 8.92194803e-05 8.92194803e-05
      8.92194803e-05 8.92194803e-05 9.01315798e-05 8.92194803e-05 0. 0.
      0. 8.16267766e-06 1.45558242e-05 1.45558242e-05 2.64170649e-05
      6.88209984e-05 9.01712338e-05 9.01712338e-05 9.01712338e-05
      9.01712338e-05 9.01712338e-05 9.01712338e-05 9.01712338e-05
      9.01712338e-05 3.55837219e-05 2.31294198e-05 3.26184136e-06 0.
      6.33606442e-06 1.45558242e-05 2.64170649e-05 6.88209984e-05
      9.01712338e-05 9.01712338e-05 9.01712338e-05 9.01712338e-05
      9.01712338e-05 9.01712338e-05 9.01712338e-05 9.01712338e-05
      8.49072967e-05 4.69966617e-05 -2.92985760e-06 -1.00466023e-05
      -3.65345613e-06 4.50922153e-06 2.16344033e-05 6.88209984e-05
      8.53885722e-05 8.53885722e-05 8.53885722e-05 8.53885722e-05
      8.53885722e-05 8.53885722e-05 8.53885722e-05 8.53885722e-05
      7.43794153e-05 5.06569340e-05 -1.22864594e-05 -2.62849044e-05
      -3.01398068e-05 -2.56303556e-05 2.07837942e-07 1.45558242e-05
      2.12615414e-05 6.39620121e-05 7.58232491e-05 7.58232491e-05
      7.58232491e-05 7.58232491e-05 7.58232491e-05 7.58232491e-05
      6.40160360e-05 6.40160360e-05 4.02521800e-05 -3.55130214e-06
      -4.99190537e-05 -4.99190537e-05 -2.15376676e-05 1.19871493e-05
      3.37156143e-06 2.87479434e-05 4.80224589e-05 6.55177937e-05
      6.64073814e-05 6.64073814e-05 6.64073814e-05 6.64073814e-05
      5.34881510e-05 5.34881510e-05 2.01589755e-05 2.01589755e-05
      1.77867278e-05 -2.69115990e-05 -2.66506213e-05 0. -3.33291755e-05
      -2.15132713e-05 -1.01739524e-05 1.68728900e-06 3.13403907e-05
      5.68420619e-05 5.68420619e-05 5.68420619e-05 4.82242103e-05
      4.82242103e-05 1.01123733e-05 1.01123733e-05 1.01123733e-05
      1.01123733e-05 5.20593967e-05 8.92579264e-05 1.70666463e-05
      -2.62505964e-05 -3.81118371e-05 -3.75981035e-05 -3.12620396e-05
      -1.67357994e-05 2.44820130e-05 4.96871507e-05 4.82242103e-05
      4.82242103e-05 1.01123733e-05 1.01123733e-05 1.01123733e-05
      1.01123733e-05 5.20593967e-05 9.01712338e-05 5.20593967e-05
      5.20593967e-05 3.18952880e-05 -1.62971287e-06 -2.33853916e-05
      -3.81118371e-05 -3.62281426e-05 -2.81225475e-05</_>
    <_>
      1.35525272e-20 1.35525272e-20 1.35525272e-20 6.28007592e-06
      1.19043589e-05 3.55647207e-05 4.16422154e-05 4.54432484e-05
      1.13971713e-04 1.02187274e-04 5.24383067e-05 -2.64006176e-05
      -7.95201704e-05 -9.52839619e-05 -8.77414714e-05 -2.82083256e-05
      1.35525272e-20 1.35525272e-20 2.04608932e-05 4.01866055e-05
      9.19125669e-05 1.17772746e-04 1.03389350e-04 8.19586639e-05
      5.33818684e-06 3.31125739e-06 3.43980844e-08 2.19220487e-06
      3.79652593e-05 4.64085751e-05 1.82081058e-05 -5.50369315e-08
      1.35525272e-20 1.31679017e-05 5.39726643e-05 1.06369647e-04
      1.01912694e-04 4.97989349e-05 -9.52434948e-06 -4.85396122e-05
      -4.85396122e-05 1.58593357e-05 5.41967638e-05 1.03182938e-04
      1.17181102e-04 1.16050796e-04 8.21044814e-05 1.35525272e-20
      4.86199451e-06 7.30467582e-05 1.14059461e-04 6.44083411e-05
      1.48576128e-05 -3.59790429e-05 -9.52320261e-05 -3.24976900e-05
      -2.22192175e-05 -7.15960687e-06 1.71751999e-05 8.68699935e-05
      1.17772746e-04 1.17772746e-04 1.13712740e-04 6.05450550e-05
      2.58293439e-05 7.03839323e-05 3.95274255e-05 5.92007336e-06
      -2.23373881e-05 -3.04519490e-05 -4.41805678e-05 -3.61944476e-05
      -9.25196946e-06 -2.75184675e-07 1.72195632e-06 1.07369042e-05
      7.89478945e-05 1.17772746e-04 1.15341754e-04 8.76685299e-05
      5.18935849e-05 3.06484508e-05 1.65110805e-07 0. -1.63502882e-05
      -3.14450044e-05 -2.01133989e-05 -4.95332415e-07 1.35525272e-20
      1.35525272e-20 1.35525272e-20 7.29299154e-06 6.89731896e-05
      1.17772746e-04 1.16455958e-04 1.03288061e-04 -2.18847144e-05
      5.36610116e-07 7.56757856e-08 0. -3.49506263e-06 -4.41634256e-06
      -1.47911760e-06 -4.95332415e-07 1.35525272e-20 1.35525272e-20
      1.35525272e-20 7.29299154e-06 5.99427185e-05 8.79074723e-05
      1.17772746e-04 1.17772746e-04 -7.12479005e-06 0. 0. 7.06002766e-06
      4.01993930e-06 -4.41634256e-06 -1.47911760e-06 -4.95332415e-07
      1.35525272e-20 1.35525272e-20 1.35525272e-20 7.29299154e-06
      4.85396122e-05 7.02598118e-05 1.17772746e-04 1.17772746e-04
      -2.27102682e-05 0. 0. 7.06002766e-06 4.01993930e-06
      -4.41634256e-06 -1.47911760e-06 -4.95332415e-07 1.35525272e-20
      1.35525272e-20 1.35525272e-20 7.29299154e-06 4.85396122e-05
      7.02598118e-05 1.17772746e-04 1.17772746e-04 -2.18847144e-05
      5.36610116e-07 7.56757856e-08 0. -3.49506263e-06 -4.41634256e-06
      -1.47911760e-06 -4.95332415e-07 1.35525272e-20 1.35525272e-20
      1.35525272e-20 7.29299154e-06 5.99427185e-05 8.79074723e-05
      1.15544339e-04 9.35640710e-05 5.18935849e-05 3.06484508e-05
      1.65110805e-07 0. -1.63502882e-05 -3.14450044e-05 -2.01133989e-05
      -4.95332415e-07 1.35525272e-20 1.35525272e-20 1.35525272e-20
      7.29299154e-06 5.62376226e-05 1.17772746e-04 1.15341754e-04
      9.19434024e-05 2.09673508e-05 8.78637948e-05 3.80827041e-05
      5.08076027e-06 -3.01367763e-05 -6.33496747e-05 -2.92065906e-05
      -1.47317478e-05 -4.26064435e-06 -2.75184675e-07 1.72195632e-06
      4.49462168e-05 1.12885704e-04 1.17772746e-04 1.15341754e-04
      9.19434024e-05 1.35525272e-20 7.25403006e-05 1.12395683e-04
      4.62731914e-05 0. -3.59208643e-05 -9.94584116e-05 -5.41726258e-05
      -3.17730883e-05 -8.78862193e-06 5.87150826e-05 9.50418398e-05
      1.17772746e-04 1.14531424e-04 9.47712178e-05 8.32553269e-05
      1.35525272e-20 1.35525272e-20 5.16429573e-05 1.06369647e-04
      1.04407511e-04 6.68619396e-05 1.70109688e-05 -8.64413523e-05
      -9.17085126e-05 1.00435454e-05 4.92133840e-05 9.21111496e-05
      1.17181102e-04 1.05576015e-04 5.80055930e-05 1.35525272e-20
      1.35525272e-20 1.35525272e-20 1.35525272e-20 1.46611346e-05
      8.35053652e-05 1.17266289e-04 1.17772746e-04 1.05169078e-04
      1.38626392e-05 2.75184675e-07 -5.06457752e-07 9.76706360e-07
      2.03850414e-05 2.99550393e-05 -2.96908934e-06 -5.50369315e-08
      1.35525272e-20 1.35525272e-20 1.35525272e-20 1.35525272e-20
      3.80103484e-06 2.10800299e-05 5.09047786e-05 1.09466841e-04
      1.09466841e-04 1.00046731e-04 9.40807076e-05 -1.66530317e-05
      -9.24919950e-05 -1.17772746e-04 -8.44570750e-05 -2.48420456e-05</_>
    <_>
      -1.35525272e-20 -1.35525272e-20 -1.35525272e-20 -1.35525272e-20
      3.07092887e-06 1.35308719e-05 2.05135148e-05 2.20682923e-05
      4.15161303e-05 2.81600478e-05 -4.92797471e-06 -6.32158990e-05
      -6.62852981e-05 -6.33626769e-05 -6.27350673e-05 -3.39685248e-05
      1.99284405e-05 3.69282243e-05 5.86982133e-05 6.19296115e-05
      6.50005386e-05 7.44781282e-05 8.30089411e-05 7.51747866e-05
      1.95952580e-05 4.13890257e-06 -4.85600540e-05 -8.19777124e-05
      -6.20886858e-05 -3.12244847e-05 1.14158784e-05 3.96506985e-05
      5.13777777e-05 5.13777777e-05 6.39116843e-05 6.61638696e-05
      5.63004396e-05 2.82294786e-05 -8.47794217e-06 -2.18302557e-05
      -1.56854439e-05 2.95091140e-05 1.72342288e-06 -5.13576333e-06
      2.42044662e-05 4.12349291e-05 4.12349291e-05 4.12349291e-05
      1.43198376e-05 2.36987617e-05 3.80816018e-05 -1.36586941e-05
      -5.82582252e-05 -4.81325151e-05 -2.38292910e-06 3.93613009e-05
      4.78765287e-05 7.88778489e-05 6.27738918e-05 4.06408435e-05
      4.12349291e-05 4.12349291e-05 4.12349291e-05 4.12349291e-05
      3.47667046e-05 3.70305825e-05 1.12411217e-05 -4.57332244e-05
      -8.27702752e-05 -5.32100057e-05 2.82228448e-05 4.59012081e-05
      8.16246902e-05 1.15726063e-04 7.49537430e-05 4.12349291e-05
      4.12349291e-05 4.12349291e-05 4.12349291e-05 4.12349291e-05
      3.99412820e-05 -2.42120204e-05 -7.87759564e-05 -8.33669328e-05
      -6.60788355e-05 -2.66396510e-05 5.40783112e-05 1.07824744e-04
      1.24020546e-04 1.23647202e-04 7.50516629e-05 4.12349291e-05
      4.12349291e-05 4.12349291e-05 4.12349291e-05 4.12349291e-05
      -7.04551057e-05 -8.08306868e-05 -9.31548348e-05 -9.24224514e-05
      -7.48950988e-05 -3.45143271e-05 3.74288174e-05 9.36504366e-05
      1.18133641e-04 1.22191865e-04 7.49537430e-05 4.12349291e-05
      4.12349291e-05 4.12349291e-05 4.12349291e-05 4.12349291e-05
      -1.24601866e-04 -1.24601866e-04 -1.24601866e-04 -1.02528662e-04
      -8.20916684e-05 -5.84672489e-05 4.01490252e-06 5.74562582e-05
      9.50097383e-05 1.17178985e-04 7.50516629e-05 4.12349291e-05
      4.12349291e-05 4.12349291e-05 4.12349291e-05 4.12349291e-05
      -1.24601866e-04 -1.24601866e-04 -1.24601866e-04 -1.02528662e-04
      -8.20916684e-05 -5.84672489e-05 4.01490252e-06 5.74562582e-05
      9.50097383e-05 1.17178985e-04 7.50516629e-05 4.12349291e-05
      4.12349291e-05 4.12349291e-05 4.12349291e-05 4.12349291e-05
      -7.92326537e-05 -9.69478860e-05 -1.22423546e-04 -1.24601866e-04
      -1.07074513e-04 -6.66937412e-05 1.57503180e-07 5.74562582e-05
      9.50097383e-05 1.17178985e-04 7.49537430e-05 4.12349291e-05
      4.12349291e-05 4.12349291e-05 4.12349291e-05 4.12349291e-05
      -1.35525272e-20 -6.32820011e-05 -1.16942567e-04 -1.23632999e-04
      -1.07313761e-04 -6.78745782e-05 -2.04063076e-06 5.49371980e-05
      9.44284184e-05 1.07974396e-04 6.01676511e-05 4.12349291e-05
      4.12349291e-05 4.12349291e-05 4.12349291e-05 4.12349291e-05
      -1.35525272e-20 -1.85975750e-05 -7.67978199e-05 -1.13095703e-04
      -1.24601866e-04 -9.50415924e-05 -2.08457750e-05 -1.60067327e-06
      5.20325630e-05 9.90740373e-05 5.86009119e-05 4.12349291e-05
      4.12349291e-05 4.12349291e-05 4.12349291e-05 4.12349291e-05
      -1.35525272e-20 -1.35525272e-20 -2.36167310e-07 -4.85888340e-05
      -1.03316925e-04 -1.05292078e-04 -4.62554999e-05 -8.11123846e-06
      2.08915062e-05 6.44492466e-05 4.63231372e-05 4.06408435e-05
      4.12349291e-05 4.12349291e-05 4.12349291e-05 4.12349291e-05
      -1.35525272e-20 -1.35525272e-20 -1.35525272e-20 -1.35525272e-20
      -2.94671008e-06 -2.22243398e-05 -2.09611790e-05 -4.12349291e-05
      -2.95921254e-05 2.56209642e-05 2.01937819e-05 1.29991349e-05
      2.42044662e-05 4.12349291e-05 4.12349291e-05 4.12349291e-05
      3.91684580e-06 9.52544906e-06 1.44180603e-05 1.83663979e-05
      4.83310505e-05 6.89993758e-05 8.33669328e-05 7.51747866e-05
      1.91992021e-05 3.90538662e-06 -1.43675607e-05 -1.95589000e-05
      -4.65011317e-06 5.21325546e-06 2.41868620e-05 5.09683778e-05
      4.59180155e-05 6.21471627e-05 7.63476710e-05 8.02960058e-05
      8.33669328e-05 8.33669328e-05 8.33669328e-05 8.33669328e-05
      9.50097383e-05 1.18133641e-04 1.09537272e-04 5.96940117e-05
      1.83888897e-05 -6.43794465e-06 5.43194665e-06 3.30732073e-05</_>
    <_>
      8.47032947e-21 8.47032947e-21 8.47032947e-21 6.32019555e-06
      1.30825247e-05 1.44687083e-05 3.58241123e-05 5.90103773e-05
      7.87071112e-05 5.59228611e-05 2.02572410e-05 -2.24314444e-05
      -4.98362169e-05 -5.82963294e-05 -6.19608545e-05 -3.86898209e-05
      8.47032947e-21 2.65927451e-06 2.16013505e-05 5.81214372e-05
      7.62811906e-05 7.84242875e-05 7.93235231e-05 7.13150075e-05
      2.20525944e-05 3.58894022e-06 -3.00850115e-06 -4.77886215e-06
      -1.91830395e-06 -5.20843969e-06 -7.78978119e-06 -8.69247174e-07
      1.00221241e-05 3.26059380e-05 7.22707846e-05 8.02001741e-05
      7.08316584e-05 3.36873964e-05 -4.50206153e-06 -1.65113925e-05
      -1.83436296e-05 1.51896729e-05 3.44593755e-05 5.60570261e-05
      7.08557709e-05 7.62438940e-05 4.54887559e-05 1.00221241e-05
      4.77723188e-05 6.71137968e-05 8.15616295e-05 4.36791161e-05
      1.31448610e-06 -1.17731552e-05 -3.96319920e-05 -3.31515876e-05
      -2.69734410e-05 -5.32541389e-06 2.57998126e-05 6.34892058e-05
      8.19760680e-05 8.19760680e-05 5.98511651e-05 3.89899942e-05
      7.06379360e-05 7.50416148e-05 4.52797467e-05 1.67407288e-05
      -1.09934263e-07 -6.59219836e-07 -1.79088711e-05 -4.05395258e-05
      -2.33081773e-05 -4.34623598e-06 7.09361439e-06 5.41318150e-05
      8.19760680e-05 8.19760680e-05 6.08133741e-05 4.38694588e-05
      4.19458156e-05 1.55047273e-05 -7.31109651e-07 -3.33885123e-06
      4.29825104e-06 -3.23697509e-06 -1.90705687e-05 -7.82322422e-06
      8.47032947e-21 1.72062773e-05 4.42662968e-05 6.71325761e-05
      8.19760680e-05 8.17195541e-05 5.88391740e-05 4.01138095e-05
      -6.89373628e-05 -5.62481691e-05 -3.95675852e-05 -3.78324403e-05
      -3.21515327e-05 -2.56371477e-05 -2.33610172e-05 -7.82322422e-06
      5.13026521e-07 2.46400705e-05 6.70484078e-05 8.10126730e-05
      8.19760680e-05 8.10965939e-05 4.39449759e-05 1.78779965e-06
      -8.19760680e-05 -8.19760680e-05 -8.19760680e-05 -6.14203745e-05
      -3.97949880e-05 -2.88124174e-05 -2.32510829e-05 -6.37861774e-07
      3.53018440e-05 6.51661103e-05 8.19760680e-05 8.19760680e-05
      7.54672947e-05 6.05174937e-05 3.02432782e-05 1.91656877e-08
      -8.19760680e-05 -8.19760680e-05 -8.19760680e-05 -6.14203745e-05
      -3.97949880e-05 -2.88124174e-05 -2.25771578e-06 4.67858881e-05
      7.66681696e-05 8.19027773e-05 8.09401317e-05 6.98408185e-05
      4.36941300e-05 6.50103129e-06 2.19868525e-07 8.47032947e-21
      -6.89373628e-05 -7.35009089e-05 -8.07808538e-05 -8.19760680e-05
      -5.08497578e-05 7.42159000e-06 4.04116217e-05 7.09982414e-05
      8.19760680e-05 8.05764939e-05 7.28357918e-05 2.67956984e-05
      8.42829309e-07 8.47032947e-21 8.47032947e-21 8.47032947e-21
      8.47032947e-21 -4.70533159e-05 -7.84803779e-05 -7.00917444e-05
      -3.08314739e-05 2.64460832e-05 5.05355383e-05 7.37592127e-05
      7.02615580e-05 4.61565542e-05 2.55126361e-05 7.80545906e-06
      8.56928546e-06 2.64216396e-05 2.36402866e-05 1.94360273e-05
      8.47032947e-21 -1.17319723e-05 -5.11094331e-05 -2.54120932e-05
      -1.30477417e-06 1.12684702e-05 3.72659742e-05 2.27276614e-05
      1.37600073e-05 1.15564280e-05 8.47032947e-21 8.47032947e-21
      1.93727483e-05 5.90465424e-05 7.59529503e-05 8.15687963e-05
      1.91656877e-08 1.78302489e-05 4.19648277e-05 2.51206002e-05 0.
      -3.67061716e-06 -2.44483399e-05 -2.08801684e-05 -2.61122932e-05
      -1.22118636e-05 6.56974134e-06 2.50006942e-05 4.86819627e-05
      7.97929097e-05 8.15687963e-05 8.15687963e-05 6.14163719e-06
      4.36232804e-05 8.05472155e-05 8.19760680e-05 7.55809961e-05
      3.81308091e-05 -1.58571384e-05 -4.67462887e-05 -4.67462887e-05
      -2.11268366e-06 3.50095106e-05 5.27182165e-05 6.96459974e-05
      8.18802364e-05 7.63588832e-05 6.05832247e-05 5.45017392e-05
      6.57573255e-05 8.10965939e-05 8.19760680e-05 8.19760680e-05
      8.19760680e-05 8.19760680e-05 7.63606367e-05 2.54994593e-05
      4.34623598e-06 0. 1.29371506e-06 2.20846268e-05 5.35905529e-05
      3.86427382e-05 8.88243540e-06 2.03158525e-05 4.01155667e-05
      6.65184562e-05 6.73979303e-05 6.73979303e-05 6.73979303e-05
      7.55731235e-05 8.19760680e-05 8.19760680e-05 8.19760680e-05
      7.34823043e-05 3.80552119e-05 6.34993467e-06 -1.73708522e-05
      -3.67846442e-05 -2.94552592e-05</_>
    <_>
      -3.04931861e-20 -3.04931861e-20 5.80994720e-06 1.12564003e-05
      1.39251497e-05 4.61229065e-05 5.74669975e-05 5.98405277e-05
      5.98405277e-05 5.98405277e-05 2.67361138e-05 -5.21189804e-06
      -5.68022442e-05 -6.88102664e-05 -6.22418011e-05 -1.98215748e-05
      -3.04931861e-20 1.80114566e-05 4.05670180e-05 7.30610118e-05
      7.49510655e-05 5.76120037e-05 5.43577553e-05 4.86867757e-05
      -2.39791484e-06 3.57565659e-06 3.88658322e-07 1.94574682e-06
      1.91069157e-05 7.18673709e-06 -7.22904497e-06 -6.21853303e-07
      4.95631753e-07 4.88331934e-05 7.49510655e-05 7.49510655e-05
      4.05866922e-05 -4.89702961e-06 -4.19573516e-05 -4.19573516e-05
      -4.19573516e-05 2.79482219e-06 4.62261123e-05 6.04929774e-05
      6.82661412e-05 7.49510655e-05 3.18681705e-05 3.13997589e-06
      4.91329592e-06 7.43408964e-05 7.49510655e-05 3.44913169e-05
      -2.31490085e-05 -3.97720469e-05 -5.19030400e-05 -1.98215748e-05
      -1.64791127e-05 -5.88976991e-06 2.83040699e-05 6.72962415e-05
      7.49510655e-05 7.49510655e-05 3.88666194e-05 3.29937138e-05
      4.19584285e-06 5.83905567e-05 3.10909600e-05 1.98890143e-06
      -3.90882960e-05 -3.76099706e-05 -1.98215748e-05 -1.98215748e-05
      -1.43026264e-05 -3.10926657e-06 2.37590175e-05 6.62690290e-05
      7.49510655e-05 7.49510655e-05 3.88666194e-05 3.29937138e-05
      -3.04931861e-20 -5.15925603e-05 -7.30855027e-05 -7.49510655e-05
      -5.07373297e-05 -1.98215748e-05 -1.67123089e-05 -5.59667978e-06
      -3.04931861e-20 -3.04931861e-20 3.83181141e-05 7.09215892e-05
      7.49510655e-05 5.75103077e-05 3.83327169e-05 3.29937138e-05
      -6.56232660e-05 -6.88879954e-05 -7.40960168e-05 -7.49510655e-05
      -5.09535239e-05 -1.32382775e-05 -1.01290107e-05 1.04207277e-06
      7.41166104e-06 4.90420571e-05 7.23431949e-05 6.83677717e-05
      5.00880269e-05 3.48750764e-05 3.28273454e-05 4.02947671e-06
      -7.49510655e-05 -7.49510655e-05 -7.49510655e-05 -4.40353106e-05
      -7.72744988e-06 2.16527260e-05 2.52450445e-05 6.44965476e-05
      7.48956081e-05 7.49510655e-05 4.91534884e-05 3.80530546e-05
      3.41123632e-05 3.29937138e-05 1.34354896e-05 1.25921147e-07
      -7.49510655e-05 -7.49510655e-05 -7.49510655e-05 -4.40353106e-05
      -1.98215748e-05 6.91668492e-06 1.05090048e-05 3.24214452e-05
      4.28205094e-05 6.22743537e-05 7.49510655e-05 7.49510655e-05
      5.73069192e-05 4.77297544e-05 1.80891930e-05 4.03197646e-07
      -6.56232660e-05 -6.88879954e-05 -7.40960168e-05 -7.49510655e-05
      -5.09535239e-05 -1.98215748e-05 -1.67123089e-05 -5.59321415e-06
      5.19893426e-08 5.54552990e-08 2.69403190e-05 7.29715975e-05
      7.49510655e-05 7.49510655e-05 6.83677717e-05 1.40407174e-05
      4.95631753e-07 -5.10969294e-05 -7.25898717e-05 -7.44554345e-05
      -5.04565869e-05 -1.98215748e-05 -1.67123089e-05 -5.59667978e-06
      -3.04931861e-20 -3.04931861e-20 -3.04931861e-20 3.78004224e-05
      7.49510655e-05 7.49510655e-05 7.49510655e-05 5.21985530e-05
      3.53137621e-05 5.92107062e-05 1.13350925e-05 -2.55707146e-05
      -3.90882960e-05 -3.76099706e-05 -1.98215748e-05 -1.98215748e-05
      -1.43026264e-05 -3.10926657e-06 1.14376554e-07 4.40433469e-05
      7.49510655e-05 7.49510655e-05 7.49510655e-05 7.49510655e-05
      6.70180307e-05 7.49510655e-05 7.49510655e-05 3.44913169e-05
      -2.31490085e-05 -3.97720469e-05 -4.81730822e-05 -2.77446234e-05
      -1.70826388e-05 -9.28964073e-06 1.67891812e-06 6.71691232e-05
      7.49510655e-05 7.49510655e-05 7.49510655e-05 5.91359021e-05
      3.58448815e-05 6.75966803e-05 7.49510655e-05 7.49510655e-05
      5.11802027e-05 1.58490038e-05 -1.66626451e-05 -4.19573516e-05
      -4.19573516e-05 2.79482219e-06 2.08398069e-05 5.58404136e-05
      6.82661412e-05 7.49510655e-05 6.94648334e-05 2.93926751e-05
      -3.04931861e-20 3.38486243e-05 5.35658510e-05 7.32586341e-05
      7.49198734e-05 5.40272449e-05 5.21458787e-05 4.86867757e-05
      -5.12118550e-06 -1.96959190e-05 -3.58476041e-06 1.94574682e-06
      2.51456786e-05 3.83176266e-05 2.16536209e-05 1.77064862e-06
      -3.04931861e-20 -3.04931861e-20 7.36080119e-06 2.88462761e-05
      3.44387663e-05 5.07754703e-05 6.86780695e-05 7.43826458e-05
      7.49129395e-05 6.60003861e-05 5.11561666e-05 1.54576846e-05
      -3.92542861e-05 -7.34002097e-05 -6.78166616e-05 -3.71171009e-05</_>
    <_>
      -1.01643954e-20 -1.01643954e-20 -1.01643954e-20 -1.01643954e-20
      -1.01643954e-20 -1.01643954e-20 8.43303894e-07 2.04527241e-05
      7.15499045e-05 1.06222404e-04 9.38029407e-05 4.47216444e-05
      -1.01238857e-05 -1.05346815e-04 -1.10849760e-04 -1.11445872e-04
      -1.01643954e-20 -1.01643954e-20 -1.01643954e-20 -1.01643954e-20
      5.05982314e-07 9.61366368e-06 3.07921437e-05 9.14062693e-05
      4.85911442e-05 -3.23685924e-07 2.18521313e-06 -3.97895883e-06
      -7.82281568e-05 -1.09618144e-04 -4.31479966e-05 -3.49634092e-06
      -1.01643954e-20 -1.01643954e-20 -1.01643954e-20 -1.01643954e-20
      -3.93493656e-06 -4.48485589e-05 -3.32829695e-05 -5.03591837e-05
      -2.66607440e-05 2.50303424e-06 2.08984911e-05 1.72700384e-05
      2.19535377e-05 -1.01643954e-20 -1.01643954e-20 -1.01643954e-20
      -1.01643954e-20 -1.01643954e-20 -1.07272888e-06 -6.42451341e-05
      -1.36020870e-04 -1.00076591e-04 -4.33244750e-05 -1.80665847e-05
      1.87928326e-05 7.57869420e-05 8.81490269e-05 5.56258237e-05
      4.18298223e-05 -1.01643954e-20 -1.01643954e-20 -1.01643954e-20
      -1.01643954e-20 -1.01643954e-20 -2.86061049e-06 -6.34937460e-05
      -9.09769369e-05 -3.09673414e-05 -4.69661882e-06 8.58183103e-06
      6.80391749e-05 1.30073371e-04 7.63342541e-05 5.17084663e-05
      3.92999100e-05 -1.01643954e-20 -1.01643954e-20 -1.01643954e-20
      -1.01643954e-20 -5.84840236e-05 -1.46547827e-04 -1.28162632e-04
      -5.21508191e-05 -1.20740997e-05 4.30484106e-05 1.08134765e-04
      1.25044942e-04 7.43105411e-05 6.63819519e-05 5.12024853e-05
      3.92999100e-05 -1.01643954e-20 -1.01643954e-20 -1.01643954e-20
      -6.47219786e-05 -1.00420213e-04 -1.52229375e-04 -9.07935537e-05
      -1.18069647e-05 5.36364450e-06 2.67000869e-05 8.09527264e-05
      5.26407166e-05 3.82542530e-05 5.03591837e-05 4.81072311e-05
      3.29799223e-05 -1.01643954e-20 -1.01643954e-20 -1.01643954e-20
      -1.57036848e-04 -1.44049962e-04 -8.68241186e-05 -1.66143163e-05
      1.33586864e-05 2.83733734e-05 2.93294706e-05 3.47024870e-05
      2.24033029e-05 3.23511267e-05 5.63000576e-05 6.67862623e-05
      4.80452254e-05 1.65024321e-05 -1.01643954e-20 -1.01643954e-20
      -1.57036848e-04 -1.21410223e-04 -1.67133330e-05 0. 7.18697629e-06
      1.83858992e-05 1.33959838e-05 -7.99387749e-07 2.00420527e-05
      4.82525174e-05 1.34773625e-04 1.50625885e-04 1.11450878e-04
      4.91430001e-05 2.16581866e-05 -1.01643954e-20 -8.80224179e-05
      -2.83641839e-05 7.92929995e-07 -2.33457231e-05 -2.94229776e-05
      -4.46708909e-05 -5.66992312e-05 -7.99387749e-07 3.06676811e-05
      7.99607442e-05 1.57036848e-04 1.51806511e-04 1.31521505e-04
      8.10418351e-05 3.46450652e-05 -1.01643954e-20 1.01152509e-04
      9.68093809e-05 1.04890232e-05 -2.48438446e-05 -3.18350758e-05
      -8.14246087e-05 -5.46224583e-05 1.87912265e-05 6.22504813e-05
      1.03332350e-04 1.57036848e-04 1.56746275e-04 1.48883322e-04
      1.00936784e-04 3.80314123e-05 6.77269611e-07 1.15745133e-04
      1.09049761e-04 3.57578501e-05 1.10451983e-05 0. 0. 0.
      8.58183103e-06 6.80391749e-05 1.39555137e-04 1.57036848e-04
      1.57036848e-04 1.55788410e-04 1.50538384e-04 1.47502491e-04
      1.45647224e-04 7.71899213e-05 1.17900490e-04 1.17408905e-04
      5.42365015e-05 -1.88885151e-05 -3.67673310e-05 -3.85552121e-05
      -3.53370269e-05 1.22496804e-05 8.54415048e-05 1.29940207e-04
      1.52166191e-04 1.37333001e-04 1.11983165e-04 1.08947272e-04
      1.07092004e-04 6.73377945e-05 6.85638879e-05 6.85638879e-05
      6.85638879e-05 6.32796655e-05 -3.23023369e-06 -6.90848028e-05
      -7.76982924e-05 -4.92280305e-05 -1.62274921e-06 5.82652137e-05
      7.08798034e-05 9.48802117e-05 1.01830577e-04 6.64904364e-05
      2.48763918e-05 -1.01643954e-20 -1.01643954e-20 -1.01643954e-20
      -1.01643954e-20 -1.01643954e-20 1.37327777e-06 3.12661687e-05
      6.88478831e-05 3.31676274e-05 -2.23894276e-05 0. 0. 1.02632212e-05
      1.09682351e-05 2.03359014e-05 -3.49634092e-06 -1.01643954e-20
      -1.01643954e-20 -1.01643954e-20 -1.01643954e-20 -1.01643954e-20
      2.08488545e-05 4.96233260e-05 8.12241051e-05 9.69953544e-05
      1.13938448e-04 1.24457336e-04 5.49480174e-05 1.79187482e-05
      -2.73881342e-05 -8.38983906e-05 -1.39873184e-04</_>
    <_>
      8.98053827e-07 8.74736998e-06 1.91992021e-05 6.03816625e-05
      6.40683356e-05 4.07137231e-05 4.07137231e-05 4.07137231e-05
      4.07137231e-05 3.77395736e-05 2.81170742e-05 2.14641077e-05
      1.33098119e-05 -1.29105947e-05 -3.96219111e-05 -2.29218458e-05
      3.18060734e-06 2.95086138e-05 7.14479465e-05 8.92329044e-05
      8.92329044e-05 8.92329044e-05 8.92329044e-05 8.39036657e-05
      2.25800359e-05 4.71610292e-06 4.29491536e-07 1.99392139e-06
      2.65856179e-05 5.84701011e-05 6.19858401e-05 6.18009381e-06
      3.18060734e-06 3.12000266e-05 7.27595616e-05 8.17673936e-05
      6.76796990e-05 3.07550727e-05 -5.42154248e-06 -9.58534929e-06
      -9.58534929e-06 3.68696710e-05 5.13545820e-05 6.06963222e-05
      7.01750687e-05 5.85262205e-05 2.08449328e-05 3.18060734e-06
      3.18060734e-06 5.41375921e-05 8.12626167e-05 2.34501604e-05
      -3.81547979e-05 -5.92117685e-05 -5.11228063e-05 -5.26261283e-06
      -1.56898579e-06 1.04485189e-05 2.21501559e-05 2.72181569e-05
      1.64241155e-05 1.34995889e-06 9.97837617e-08 9.97837617e-08
      3.18060734e-06 7.43643541e-05 4.95608583e-05 -6.54487758e-06
      -5.60249391e-05 -6.95479321e-05 -3.27384660e-05 -3.06990478e-05
      -1.78447044e-05 -3.43593229e-06 -1.35525272e-20 -1.35525272e-20
      -1.35525272e-20 -1.35525272e-20 -1.35525272e-20 -1.35525272e-20
      3.18060734e-06 1.61864718e-05 2.06155937e-06 -1.98811722e-05
      -2.89996933e-05 -2.82439069e-05 -4.64038976e-06 3.81989521e-05
      4.52333879e-05 3.68246328e-05 9.39262463e-06 2.51135498e-06
      2.05052083e-06 2.12040490e-07 -1.35525272e-20 -1.35525272e-20
      -6.62697130e-05 -2.81501775e-06 9.44881378e-07 -2.42681040e-06
      1.40237589e-05 4.11304645e-05 5.77890532e-05 8.30482240e-05
      8.92329044e-05 8.92329044e-05 8.36027757e-05 8.08919722e-05
      5.49066099e-05 1.70895346e-05 1.69632392e-06 -1.35525272e-20
      -7.10386157e-05 -1.19492261e-05 0. 2.76258561e-05 3.16890182e-05
      1.79782219e-05 2.74899139e-05 4.44945908e-05 5.00680908e-05
      7.03603437e-05 8.58227286e-05 8.92329044e-05 8.92329044e-05
      7.62439813e-05 4.20637989e-05 8.34194907e-06 -7.35207432e-05
      -2.90007538e-05 -1.83411976e-05 -1.30021799e-05 -1.52969787e-05
      -3.01105629e-05 -2.25282856e-05 -5.52361053e-06 4.98918808e-08
      1.42124427e-05 5.25426512e-05 7.56853478e-05 8.92329044e-05
      8.92329044e-05 7.92237843e-05 3.60594604e-05 -6.94503251e-05
      -7.54879584e-05 -8.45003597e-05 -8.56055849e-05 -6.34687458e-05
      -3.27384660e-05 -2.32267721e-05 -6.18467811e-06 -1.35525272e-20
      -1.35525272e-20 3.11556068e-05 5.93301738e-05 7.08917069e-05
      8.92329044e-05 8.92329044e-05 8.92329044e-05 2.35327070e-06
      -5.52297788e-05 -8.35434403e-05 -8.64547546e-05 -6.24340901e-05
      -3.26649242e-05 -2.39490655e-05 -7.28936175e-06 -2.54926960e-07
      -1.35525272e-20 -1.35525272e-20 3.18234634e-05 6.76927302e-05
      8.92329044e-05 8.33942540e-05 5.77458850e-05 8.75490514e-05
      8.20492132e-05 3.15222132e-05 4.51570440e-06 -4.22193152e-05
      -7.04137638e-05 -3.27384660e-05 -3.06990478e-05 -1.78447044e-05
      -3.43593229e-06 2.20619143e-07 4.08646083e-05 7.86542805e-05
      8.92329044e-05 7.92237843e-05 3.60594604e-05 8.92329044e-05
      8.92329044e-05 8.92329044e-05 4.70223640e-05 -2.32048278e-05
      -6.89398366e-05 -8.04927913e-05 -4.26082879e-05 -2.96096932e-05
      -1.69275481e-05 1.45640643e-05 5.87958457e-05 8.92329044e-05
      8.92329044e-05 7.91316197e-05 3.53221258e-05 7.53157146e-05
      8.79425716e-05 8.92329044e-05 8.92329044e-05 8.09327976e-05
      2.96846501e-05 -5.44231771e-05 -8.60522996e-05 -8.60522996e-05
      -3.29334289e-05 3.46448796e-05 6.94890914e-05 8.18456465e-05
      7.42192278e-05 3.60323502e-05 5.53387827e-06 -1.35525272e-20
      3.55794109e-05 7.56218287e-05 8.84034016e-05 8.92329044e-05
      8.92329044e-05 7.74355503e-05 7.45948200e-05 2.24082378e-05
      4.20071319e-06 0. 9.80086384e-07 1.34307256e-05 1.67731960e-05
      -1.12867028e-05 -2.04679691e-06 -1.35525272e-20 -1.35525272e-20
      9.99375970e-06 4.47292987e-05 6.53433308e-05 7.64033539e-05
      8.76885679e-05 8.92329044e-05 8.63648529e-05 7.53895147e-05
      3.05096764e-05 -1.85184635e-05 -6.32728188e-05 -8.83668035e-05
      -7.96275199e-05 -4.63833785e-05</_>
    <_>
      2.03287907e-20 2.03287907e-20 7.33673801e-07 1.35447476e-06
      3.38618679e-06 2.00949326e-05 2.84145608e-05 5.10991049e-05
      7.90135164e-05 1.07273205e-04 9.10335002e-05 4.78153088e-05
      -9.18640944e-06 -7.51791813e-05 -8.65515394e-05 -6.78904325e-05
      2.03287907e-20 2.03287907e-20 7.67535676e-06 1.43912939e-05
      3.42231142e-05 5.16881446e-05 8.60781001e-05 9.14635166e-05
      2.19849899e-05 -4.74504395e-06 1.15178489e-06 -1.65669474e-06
      -9.92873538e-06 -3.24291500e-06 1.65529200e-05 -1.84285580e-06
      2.03287907e-20 4.85353439e-06 2.20387192e-05 4.58387767e-05
      4.40393414e-05 1.24486614e-05 -2.33992068e-05 -4.24421123e-05
      -4.68605976e-05 -1.14484337e-05 2.22968611e-05 3.85350722e-05
      3.84813320e-05 5.44795184e-05 4.73453620e-05 2.03287907e-20
      9.42488623e-06 1.29803830e-05 4.87822763e-05 -5.35711024e-07
      -5.00479000e-05 -3.60870690e-05 -4.49311192e-05 -1.16971805e-05
      1.66077643e-06 2.51903693e-05 2.26877200e-05 2.23189054e-05
      5.44795184e-05 4.94895758e-05 1.86851794e-05 2.03287907e-20
      1.43912939e-05 4.38693642e-05 1.61715398e-05 -2.43011837e-05
      -2.77832205e-05 -3.58489451e-05 -1.27329622e-05 -9.97087682e-06
      1.39155927e-05 3.22944070e-05 5.82300231e-07 1.91883919e-06
      2.25745794e-06 5.76883622e-06 1.63665698e-06 2.03287907e-20
      4.70178384e-05 -6.12514214e-06 -5.38754830e-05 -1.85435110e-05
      -8.37629705e-06 -1.18299795e-05 5.16152159e-06 4.46985287e-05
      5.46462616e-05 7.90554714e-06 4.67599239e-06 1.50676515e-05
      5.24858933e-06 4.51491587e-07 3.38618690e-07 2.03287907e-20
      -4.05004866e-05 -4.19472453e-05 -2.51802740e-05 -9.78686899e-07
      1.20822760e-05 3.67784050e-05 5.18000488e-05 9.22223771e-05
      7.39456664e-05 6.08648043e-05 5.71837554e-05 5.35805048e-05
      4.06451509e-05 3.73185212e-05 1.03278699e-05 2.03287907e-20
      -6.62491584e-05 -4.31733351e-05 -9.32677449e-06 2.34108138e-05
      4.63500328e-05 5.07653931e-05 5.22593728e-05 8.39023851e-05
      1.00488083e-04 1.01786121e-04 1.08788474e-04 1.15161165e-04
      1.09077264e-04 7.32707485e-05 5.19466703e-05 2.03287907e-20
      -5.52747624e-05 -1.17004693e-05 0. 2.34108138e-05 2.66991028e-05
      1.11846994e-05 1.24529342e-05 4.40959411e-05 6.06816429e-05
      6.19796847e-05 6.92077811e-05 9.55102369e-05 1.15161165e-04
      1.15161165e-04 1.10925794e-04 4.69297956e-05 -2.12013329e-05
      1.79678427e-05 2.53392659e-06 0. -1.04155188e-05 -1.61832595e-05
      -4.95267486e-05 -1.65857018e-05 2.03287907e-20 2.12932150e-06
      4.46708400e-05 8.69143478e-05 1.15161165e-04 1.15161165e-04
      1.15161165e-04 1.10242428e-04 7.47419108e-05 5.45565017e-05
      5.52856727e-06 0. -1.93757805e-05 -4.88125479e-05 -5.59716136e-05
      -1.65857018e-05 2.03287907e-20 2.03287907e-20 2.46020591e-05
      6.78950892e-05 1.15161165e-04 1.15161165e-04 1.15161165e-04
      1.12691152e-04 7.40396281e-05 9.27045621e-05 2.84782218e-05
      4.72094416e-06 -3.73729054e-05 -7.54248395e-05 -6.77277712e-05
      -6.32294177e-05 -4.34214635e-05 -8.70635085e-06 2.68030799e-05
      6.82337122e-05 1.15161165e-04 1.15161165e-04 1.14540366e-04
      1.12903705e-04 3.07716473e-05 1.10445428e-04 1.14240465e-04
      5.38736967e-05 0. -5.41938098e-05 -9.77028685e-05 -7.47794547e-05
      -5.45455950e-05 -2.33607188e-05 3.08245544e-05 8.08671393e-05
      1.15161165e-04 1.15161165e-04 1.10969791e-04 9.45934662e-05
      9.36746164e-06 8.30365534e-05 1.12090427e-04 1.15161165e-04
      1.08714834e-04 4.89204940e-05 -1.35974042e-05 -4.28137573e-05
      -4.11954716e-05 -5.39423536e-06 1.76389385e-05 5.88186304e-05
      9.53504641e-05 1.11549234e-04 1.00593694e-04 2.18475398e-05
      3.12339830e-06 3.79108060e-05 8.44161550e-05 1.06066807e-04
      1.15161165e-04 1.15161165e-04 1.15161165e-04 8.89024814e-05
      1.37369270e-05 -1.34541879e-05 0. 1.47340791e-06 1.57495815e-05
      2.89793916e-05 3.90329751e-06 -2.65264333e-07 2.03287907e-20
      2.03287907e-20 1.27759290e-06 3.41329942e-05 4.91925166e-05
      9.40636673e-05 1.12282905e-04 1.15161165e-04 1.15161165e-04
      1.12282905e-04 7.48383391e-05 -1.00635398e-05 -6.00015592e-05
      -1.06287211e-04 -9.90320987e-05 -7.18379888e-05</_>
    <_>
      4.06575815e-20 1.47639548e-05 3.83685947e-05 5.69781914e-05
      6.10500938e-05 6.10500938e-05 6.10500938e-05 6.10500938e-05
      6.10500938e-05 4.95480454e-05 3.49240181e-05 1.47823230e-05
      -5.53299060e-06 9.85889528e-07 6.68113626e-06 1.91497875e-05
      1.57991781e-05 6.29525093e-05 8.97085265e-05 9.37804289e-05
      9.37804289e-05 8.33737868e-05 7.79812544e-05 6.78248034e-05
      -3.84650633e-07 -1.28415095e-05 -1.57991781e-05 -9.52163919e-06
      2.44141775e-05 5.18801244e-05 7.38634626e-05 7.79812544e-05
      2.41244925e-05 8.72245728e-05 9.18883088e-05 6.59126817e-05
      4.70764317e-05 5.02064177e-06 -4.49472282e-05 -7.83577561e-05
      -7.83577561e-05 -1.66352274e-05 -8.54631878e-07 3.27327507e-05
      7.35227295e-05 9.34020063e-05 8.74770121e-05 4.81017632e-05
      5.68548312e-05 9.03091131e-05 7.24542770e-05 -4.58710383e-06
      -6.78673823e-05 -9.18318838e-05 -8.40147550e-05 -4.19003045e-05
      -4.19003045e-05 -2.36613487e-05 1.96352757e-05 6.70651934e-05
      9.03314649e-05 7.40702380e-05 3.34542783e-05 4.06575815e-20
      8.28131961e-05 6.16214820e-05 -1.88475533e-05 -7.79885013e-05
      -9.37804289e-05 -7.77077657e-05 -4.19003045e-05 -3.40131883e-05
      -7.88711623e-06 9.55519135e-06 3.87314103e-05 7.51514890e-05
      8.60834189e-05 4.94759115e-05 4.06575815e-20 4.06575815e-20
      4.06575815e-20 -6.05177265e-05 -9.37804289e-05 -9.37804289e-05
      -7.09938613e-05 -4.19003045e-05 -2.11966235e-05 -4.27218765e-06
      3.64979746e-06 2.99942567e-05 7.11099638e-05 8.69688083e-05
      5.43589449e-05 4.06575815e-20 4.06575815e-20 4.06575815e-20
      -5.71382043e-05 -7.30767497e-05 -9.37804289e-05 -9.37804289e-05
      -7.11973189e-05 -4.19003045e-05 -1.84032706e-05 1.07850674e-05
      3.53206633e-05 6.89515728e-05 8.67795970e-05 5.52768834e-05
      7.02402758e-06 4.06575815e-20 4.06575815e-20 4.06575815e-20
      -9.37804289e-05 -9.37804289e-05 -9.37804289e-05 -6.46868648e-05
      -4.19003045e-05 -4.19003045e-05 -4.02318028e-06 4.46574486e-05
      7.71635532e-05 9.37804289e-05 6.52887684e-05 7.88269972e-06
      4.06575815e-20 4.06575815e-20 4.06575815e-20 4.06575815e-20
      -9.37804289e-05 -9.37804289e-05 -9.37804289e-05 -6.46868648e-05
      -4.19003045e-05 -3.05476024e-05 2.90248336e-05 8.16665270e-05
      9.37804289e-05 8.23241571e-05 4.31401968e-05 4.06575815e-20
      4.06575815e-20 4.06575815e-20 4.06575815e-20 4.06575815e-20
      -5.71382043e-05 -7.30767497e-05 -9.37804289e-05 -9.37804289e-05
      -7.11973189e-05 -2.60065190e-05 3.70618727e-05 8.58402273e-05
      9.37804289e-05 6.63856335e-05 1.70001822e-05 4.06575815e-20
      4.06575815e-20 4.06575815e-20 4.06575815e-20 4.06575815e-20
      4.06575815e-20 -5.82173161e-05 -8.88509821e-05 -9.21372775e-05
      -7.09938613e-05 2.68786334e-06 6.20986611e-05 8.95082412e-05
      9.27945366e-05 5.67220632e-05 1.62876006e-06 4.06575815e-20
      4.06575815e-20 4.06575815e-20 4.06575815e-20 4.06575815e-20
      4.06575815e-20 4.06575815e-20 -3.84364976e-05 -8.06352327e-05
      -7.63729549e-05 -7.79409766e-06 5.18801244e-05 5.97672406e-05
      7.46352162e-05 4.14186034e-05 4.06575815e-20 4.06575815e-20
      4.06575815e-20 4.06575815e-20 4.06575815e-20 4.06575815e-20
      4.06575815e-20 4.06575815e-20 4.06575815e-20 -2.04040607e-05
      -1.25256283e-05 -6.02374894e-06 7.93460731e-06 4.27248087e-05
      3.99170676e-05 1.78590526e-05 4.06575815e-20 4.06575815e-20
      4.06575815e-20 4.06575815e-20 4.06575815e-20 4.06575815e-20
      4.06575815e-20 4.06575815e-20 4.06575815e-20 1.88265658e-05
      7.24697238e-05 8.17301770e-05 3.99066848e-05 0. -1.12580965e-05
      -1.02473705e-05 -3.92712645e-05 -1.31451934e-05 4.06575815e-20
      4.06575815e-20 4.06575815e-20 4.06575815e-20 4.06575815e-20
      4.06575815e-20 4.06575815e-20 1.88265658e-05 7.12625406e-05
      9.23552652e-05 9.37804289e-05 8.36239778e-05 2.22227800e-06
      -5.17455010e-05 -9.37804289e-05 -9.19493687e-05 -6.93662514e-05
      -4.19003045e-05 -2.11966235e-05 -5.25807718e-06 4.06575815e-20
      4.06575815e-20 4.06575815e-20 4.16265766e-06 5.01860013e-05
      8.48222480e-05 9.37804289e-05 9.37804289e-05 5.49857577e-05
      6.51179516e-06 -1.64314918e-06 -3.82163380e-05 -7.37803275e-05
      -9.27945366e-05 -7.81935232e-05 -4.24021891e-05</_>
    <_>
      -8.47032947e-22 -8.47032947e-22 9.07237609e-06 1.07198184e-05
      3.19971041e-05 5.39519824e-05 5.85823436e-05 7.67742677e-05
      7.67742677e-05 5.44318937e-05 4.41172597e-05 -1.66965356e-06
      -4.49984327e-05 -7.10635286e-05 -6.88180589e-05 -3.40106235e-05
      -8.47032947e-22 -8.47032947e-22 5.55026418e-05 7.71349733e-05
      7.96271925e-05 6.41010047e-05 5.09800557e-05 3.87281143e-05
      -1.45914300e-05 -2.00085233e-05 -5.12545239e-06 6.87890292e-07
      4.59225976e-06 1.42689150e-05 -7.78839251e-07 -5.92662900e-07
      1.91787990e-06 6.84738698e-05 7.96271925e-05 7.07078943e-05
      3.60839804e-05 -1.33333506e-05 -5.05280259e-05 -5.63386529e-05
      -5.63386529e-05 -1.20238974e-05 1.45757986e-05 4.37861927e-05
      7.10751701e-05 7.31724504e-05 5.72653516e-05 1.30404669e-05
      1.75349014e-05 7.58610331e-05 7.92714418e-05 1.91511754e-05
      -4.65994526e-05 -6.20473365e-05 -6.85747000e-05 -3.40106235e-05
      -3.08250601e-05 -1.54807458e-05 1.23937989e-05 4.56906309e-05
      7.09472151e-05 7.96271925e-05 6.22883672e-05 2.86574887e-05
      2.32885413e-05 7.59376053e-05 4.71941421e-05 4.50387870e-06
      -4.86377066e-05 -6.45354085e-05 -3.40106235e-05 -3.11646036e-05
      -1.64772700e-05 -2.96331450e-06 1.97878144e-05 5.97345133e-05
      7.96271925e-05 7.96271925e-05 6.20266655e-05 3.16195765e-05
      2.32885413e-05 1.56596361e-05 2.89897528e-08 0. 8.87170427e-06
      -1.09374496e-05 -1.73018270e-05 -5.66429890e-06 -3.55752803e-07
      1.10114820e-06 2.59542448e-05 6.94340997e-05 7.96271925e-05
      7.91867351e-05 5.86994138e-05 2.32885413e-05 -5.45926232e-05
      -2.93154171e-05 -2.48143933e-05 -4.68490043e-06 1.98566249e-05
      4.47946222e-05 4.17156225e-05 4.49870058e-05 3.07551818e-05
      4.87620746e-05 7.24670972e-05 7.96271925e-05 7.40201867e-05
      3.93018236e-05 2.32885413e-05 2.92248365e-06 -7.96271925e-05
      -7.08597436e-05 -5.17281223e-05 -1.38806272e-05 3.47969326e-05
      4.56165690e-05 5.70586599e-05 7.42932316e-05 7.96271925e-05
      7.96271925e-05 7.96271925e-05 7.34607675e-05 3.73495750e-05
      1.47950741e-05 2.73982835e-07 -8.47032947e-22 -7.95358646e-05
      -7.04031045e-05 -3.54839904e-05 4.62052725e-07 4.09633612e-05
      2.47490407e-05 2.77437284e-05 5.66504677e-05 7.81441850e-05
      7.96271925e-05 7.96271925e-05 7.96271925e-05 7.83058204e-05
      5.94256671e-05 2.41720845e-05 2.88287902e-06 -4.49025174e-05
      -8.38373944e-06 -5.43374711e-07 0. -6.83023700e-06 -2.59934586e-06
      -1.46230323e-05 -5.33396633e-06 2.23064603e-06 2.07453977e-05
      6.27769914e-05 7.26899598e-05 7.96271925e-05 7.96271925e-05
      7.78653557e-05 2.64953414e-05 3.92430884e-05 2.92205204e-05
      3.55675274e-06 -1.93378619e-05 -3.28736096e-05 -3.40106235e-05
      -2.35765019e-05 -6.87556167e-06 -3.55752803e-07 -8.47032947e-22
      -8.47032947e-22 3.01766922e-05 5.75155136e-05 7.96271925e-05
      7.96271925e-05 7.31724504e-05 6.85046107e-05 7.26537328e-05
      3.16367405e-05 -2.81361517e-05 -5.61206434e-05 -6.54950054e-05
      -3.40106235e-05 -3.11646036e-05 -1.64772700e-05 -2.96331450e-06
      -8.47032947e-22 2.03660584e-05 4.38273310e-05 7.96271925e-05
      7.96271925e-05 7.96271925e-05 7.37969822e-05 7.96271925e-05
      7.96271925e-05 2.30644564e-05 -4.49225699e-05 -7.45687794e-05
      -7.26505459e-05 -4.20606084e-05 -3.13617275e-05 -1.54807458e-05
      1.23937989e-05 2.30662936e-05 4.38273310e-05 7.96271925e-05
      7.96271925e-05 7.96271925e-05 3.37383390e-05 7.80855917e-05
      7.96271925e-05 7.07078943e-05 3.78784207e-05 3.98808470e-06
      -2.95980681e-05 -5.63386529e-05 -5.63386529e-05 -1.93087308e-05
      -7.62500576e-06 1.59554402e-05 5.46613592e-05 7.96271925e-05
      7.80855917e-05 4.12715599e-05 -8.47032947e-22 3.42239764e-05
      7.36635848e-05 7.96271925e-05 7.96271925e-05 7.96271925e-05
      7.25968857e-05 6.38858182e-05 1.04181036e-05 -6.35832203e-06
      -5.49586684e-06 1.60999662e-06 1.95534813e-05 3.47982095e-05
      3.58602074e-06 5.84102463e-06 -8.47032947e-22 -8.47032947e-22
      9.07237609e-06 2.68874792e-05 3.74458723e-05 4.93906446e-05
      5.94761841e-05 5.94761841e-05 5.94761841e-05 5.34293977e-05
      4.60145529e-05 4.46236271e-07 -3.76123426e-05 -7.57907474e-05
      -6.79922596e-05 -4.26296610e-05</_>
    <_>
      8.47032947e-22 8.47032947e-22 7.95160486e-06 9.42412407e-06
      3.64491934e-05 6.16028337e-05 8.37860352e-05 8.37860352e-05
      8.72956953e-05 7.75904191e-05 6.28094131e-05 1.17591953e-05
      -3.87339678e-05 -7.69339968e-05 -7.81648778e-05 -4.45103178e-05
      8.47032947e-22 2.98452251e-05 7.16087379e-05 8.69748110e-05
      8.72956953e-05 8.43600064e-05 6.87149441e-05 5.06628348e-05
      -8.53854908e-06 -2.21838873e-05 -1.54385361e-05 1.51007225e-06
      1.94872246e-05 3.14592398e-05 1.09777593e-05 -2.87227323e-07
      1.22245865e-05 6.83966646e-05 8.72956953e-05 8.72956953e-05
      7.06269057e-05 2.08058773e-05 -2.90759308e-05 -4.26633233e-05
      -4.26633233e-05 -5.99060604e-06 1.95058219e-05 6.41387960e-05
      8.42080044e-05 8.72956953e-05 8.15154708e-05 5.60092531e-06
      4.31501685e-05 8.72956953e-05 8.64638132e-05 4.96754401e-05
      -1.26586010e-05 -4.96782413e-05 -7.08405933e-05 -4.45103178e-05
      -4.29664724e-05 -2.45248812e-05 1.17763020e-05 5.64777692e-05
      8.72956953e-05 8.72956953e-05 8.37616535e-05 4.55950249e-05
      8.21816211e-05 8.72956953e-05 5.55470469e-05 1.13021824e-05
      -3.37387210e-05 -4.62110220e-05 -4.45103178e-05 -3.78552686e-05
      -1.32612777e-05 -1.43613659e-06 8.47032947e-22 4.74024382e-05
      8.10980564e-05 8.72956953e-05 8.67365161e-05 4.23229685e-05
      8.72956953e-05 3.38760874e-05 8.61681940e-07 -4.63652714e-06
      -1.49467105e-05 -1.66807204e-05 -2.56046787e-05 -6.18986405e-06
      -8.31881152e-07 8.47032947e-22 8.47032947e-22 4.07089865e-05
      6.26290857e-05 8.72956953e-05 8.71559023e-05 4.67731043e-05
      -8.91886884e-06 2.02699703e-05 3.94937558e-07 0. -1.31160759e-05
      -1.66807204e-05 -2.32476814e-05 -2.58504588e-06 8.47032947e-22
      8.40138819e-06 3.62309875e-05 4.85410637e-05 6.88267319e-05
      8.72956953e-05 8.72956953e-05 4.82642499e-05 -5.41965856e-05
      -2.82489837e-05 0. 2.39933688e-05 3.28198075e-05 8.30294175e-06
      2.13846924e-05 4.20473298e-05 4.46323756e-05 4.46323756e-05
      4.61701165e-05 6.19361599e-05 8.72956953e-05 8.72956953e-05
      7.32933840e-05 4.54637848e-05 -8.72956953e-05 -5.83114524e-05
      -3.21025800e-05 2.11929073e-05 4.27853774e-05 3.98496886e-05
      4.19575990e-05 5.30758698e-05 5.56609157e-05 7.05089769e-05
      8.67831186e-05 8.39927889e-05 8.10980564e-05 7.88943071e-05
      5.09249148e-05 4.11721776e-05 -5.20690410e-05 -6.70257286e-05
      -7.86282690e-05 -5.08169578e-05 -2.32076891e-05 2.03816780e-05
      4.16443145e-05 8.19101915e-05 8.72956953e-05 7.58100432e-05
      5.86579954e-05 5.23326235e-05 5.98286242e-05 5.66656381e-05
      4.21041441e-05 3.67220455e-05 8.47032947e-22 -5.14785534e-05
      -8.22746078e-05 -8.59092324e-05 -6.85036866e-05 -4.22641351e-05
      -2.33584960e-05 3.50877672e-05 4.38004936e-05 4.46323756e-05
      4.46323756e-05 5.52345155e-05 8.16947722e-05 4.26633233e-05
      4.13604284e-05 2.87890653e-05 8.47032947e-22 -2.87227317e-06
      -3.92883667e-05 -7.57372036e-05 -8.72956953e-05 -7.40406176e-05
      -3.05080048e-05 3.97664280e-06 3.13710989e-05 4.31962399e-05
      4.61701165e-05 6.35405740e-05 4.26633233e-05 4.26633233e-05
      3.91292779e-05 8.47032947e-22 8.47032947e-22 7.18926276e-06
      1.33425610e-05 -1.48940126e-05 -4.94569467e-05 -7.34364148e-05
      -4.45210644e-05 -7.42830480e-06 1.16254580e-06 2.01074945e-05
      5.53645332e-05 4.81565366e-05 4.26633233e-05 4.11908040e-05
      2.64372356e-05 8.47032947e-22 8.47032947e-22 3.26638474e-05
      4.24303325e-05 4.26633233e-05 4.37900890e-05 3.32130840e-05
      -9.44499243e-06 -4.26633233e-05 -4.26633233e-05 5.80017240e-06
      2.58580330e-05 2.76940027e-05 3.85970670e-05 3.07759001e-05
      8.47032947e-22 8.47032947e-22 4.45013393e-06 3.44345826e-05
      4.26633233e-05 4.26633233e-05 8.72956953e-05 8.43600064e-05
      6.87149441e-05 5.06628348e-05 4.49506706e-06 -4.46960848e-06
      -3.62309875e-05 -4.73518739e-05 -4.86924328e-05 -4.36845403e-05
      -2.12244613e-05 -4.72392685e-06 8.47032947e-22 8.54061273e-06
      3.47361020e-05 3.91536632e-05 6.76924610e-05 8.72956953e-05
      8.72956953e-05 8.72956953e-05 8.44952374e-05 5.31559745e-05
      2.56071326e-05 -3.09047136e-05 -6.91226014e-05 -8.64638132e-05
      -7.42718330e-05 -4.46230842e-05</_>
    <_>
      -1.05032085e-19 -1.05032085e-19 -1.05032085e-19 -1.05032085e-19
      -1.05032085e-19 -1.05032085e-19 -1.05032085e-19 -1.05032085e-19
      -1.05032085e-19 -2.87984949e-05 -8.44278402e-05 -1.29577704e-04
      -1.42826568e-04 -1.25463921e-04 -4.26163351e-05 4.60123811e-05
      -1.05032085e-19 -1.05032085e-19 -1.05032085e-19 -1.05032085e-19
      -1.05032085e-19 -1.05032085e-19 -1.05032085e-19 -2.42556926e-05
      -1.34358663e-04 -2.02339972e-04 -2.06775323e-04 -7.43745404e-05
      -8.85310783e-06 5.22110568e-05 1.52052249e-04 1.37059484e-04
      -1.05032085e-19 -1.05032085e-19 -1.05032085e-19 -1.05032085e-19
      -1.09555058e-05 -6.66431879e-05 -1.70150699e-04 -2.24179705e-04
      -1.79420225e-04 -7.84515796e-05 4.44174657e-05 1.37405281e-04
      1.80411182e-04 1.34116388e-04 4.00012868e-05 -1.05032085e-19
      -1.05032085e-19 -1.05032085e-19 -3.30789862e-06 -7.73758511e-05
      -1.63534904e-04 -2.18666537e-04 -2.20878501e-04 -1.51453234e-04
      2.50865414e-05 1.11786350e-04 2.08118945e-04 6.07623952e-05
      5.37995811e-06 1.05141439e-07 -1.05032085e-19 -1.05032085e-19
      -1.05032085e-19 -1.05032085e-19 -2.09255013e-05 -1.45103390e-04
      -1.96076478e-04 -1.01797923e-04 1.28063175e-05 4.40008698e-05
      1.39909534e-04 1.14301562e-04 4.73136470e-06 -1.05032085e-19
      -1.05032085e-19 -1.05032085e-19 -1.05032085e-19 -1.05032085e-19
      -1.05032085e-19 -9.87798194e-05 -2.10803017e-04 -6.35695396e-05
      7.70282531e-06 1.75376827e-05 7.86445235e-05 1.13028946e-04
      -2.46844229e-06 -1.05032085e-19 -1.05032085e-19 -1.05032085e-19
      -1.05032085e-19 -1.05032085e-19 -1.05032085e-19 -1.05032085e-19
      -5.76214625e-05 -7.80653936e-05 -4.82625255e-05 -1.27780040e-05
      -2.78905736e-05 -1.25080769e-04 -1.15483264e-04 -1.86512007e-05
      -1.05032085e-19 -1.05032085e-19 -1.05032085e-19 -1.05032085e-19
      -1.05032085e-19 -1.05032085e-19 -1.05032085e-19 -1.05032085e-19 0.
      0. -1.23079053e-05 -8.38461128e-05 -1.95449276e-04 -1.73203691e-04
      -1.01772144e-04 -1.86512007e-05 -1.05032085e-19 -1.05032085e-19
      -1.05032085e-19 -1.05032085e-19 -1.05032085e-19 -1.05032085e-19
      -1.05032085e-19 -1.05032085e-19 0. 0. -1.23079053e-05
      -1.25938692e-04 -1.95449276e-04 -1.73203691e-04 -1.01772144e-04
      -1.86512007e-05 -1.05032085e-19 -1.05032085e-19 -1.05032085e-19
      -1.05032085e-19 -1.05032085e-19 -1.05032085e-19 -1.05032085e-19
      -1.05032085e-19 -9.91426277e-05 -3.92104012e-05 -1.68394836e-05 0.
      -1.53612273e-05 -1.12849739e-04 -9.57942975e-05 -1.86512007e-05
      -1.05032085e-19 -1.05032085e-19 -1.05032085e-19 -1.05032085e-19
      -1.05032085e-19 -1.05032085e-19 -1.05032085e-19 -1.05032085e-19
      -1.05032085e-19 -9.30201204e-05 -1.89890881e-04 -4.68758226e-05
      7.70282531e-06 1.75376827e-05 8.09651392e-05 7.02019825e-05
      -2.46844229e-06 -1.05032085e-19 -1.05032085e-19 -1.05032085e-19
      -1.05032085e-19 -1.05032085e-19 -1.05032085e-19 -1.05032085e-19
      -1.05032085e-19 -3.05172125e-05 -9.61713304e-05 -1.83702286e-04
      -2.04431883e-04 -1.09907574e-04 -9.31091563e-06 4.40008698e-05
      7.16418581e-05 5.74367550e-05 2.68485983e-05 -1.05032085e-19
      -1.05032085e-19 -1.05032085e-19 -1.05032085e-19 -1.05032085e-19
      -1.05032085e-19 -1.05032085e-19 -8.39456220e-07 -5.02229850e-05
      -1.36793446e-04 -2.16198096e-04 -2.21497467e-04 -4.45783626e-05
      3.44238069e-05 1.19446602e-04 2.04859563e-04 1.12691792e-04
      4.95939230e-06 -1.05032085e-19 -1.05032085e-19 -1.05032085e-19
      -1.05032085e-19 -1.05032085e-19 -1.05032085e-19 -1.05032085e-19
      -7.58552005e-06 -5.83213841e-05 -1.62103999e-04 -2.24179705e-04
      -1.97221656e-04 -4.32911584e-05 6.73093746e-05 1.43084879e-04
      1.74943823e-04 6.71170783e-05 3.40082224e-05 -1.05032085e-19
      -1.05032085e-19 -1.05032085e-19 -1.05032085e-19 -1.05032085e-19
      -1.05032085e-19 -1.05032085e-19 -1.05032085e-19 -2.42556926e-05
      -1.34876755e-04 -2.03894233e-04 -1.95654327e-04 -5.34944447e-05
      9.09714981e-06 5.27367629e-05 1.16532960e-04 2.30286114e-05
      -1.05032085e-19 -1.05032085e-19 -1.05032085e-19 -1.05032085e-19
      -1.05032085e-19 -1.05032085e-19 -1.05032085e-19 -1.05032085e-19
      -1.05032085e-19 -1.05032085e-19 -2.39676428e-05 -1.18512864e-04
      -1.33704234e-04 -3.55535667e-05 3.20406689e-05 3.64366679e-05</_>
    <_>
      2.68755302e-05 8.14526211e-05 2.60076285e-05 1.72321404e-06
      1.77876919e-20 1.77876919e-20 1.77876919e-20 1.77876919e-20
      1.77876919e-20 1.77876919e-20 -4.22033963e-06 -4.18685886e-05
      -7.33161723e-05 -8.45396062e-05 -6.70537338e-05 -1.23108412e-05
      7.89425103e-05 9.73530623e-05 9.35064381e-05 4.77193535e-05
      2.44942130e-05 1.77876919e-20 1.77876919e-20 -7.77334844e-06
      -7.76484812e-05 -9.34448763e-05 -9.71116751e-05 -9.51952752e-05
      -6.20204373e-05 -1.55127163e-05 -5.80226424e-06 -3.86222467e-07
      1.51975828e-05 3.76139833e-05 8.60001091e-05 9.70255714e-05
      8.27016047e-05 3.37549682e-05 -6.20481733e-05 -9.73530623e-05
      -9.73530623e-05 -4.64115474e-05 -3.05034609e-05 -1.55418129e-05
      -4.15189152e-06 1.77876919e-20 1.77876919e-20 1.77876919e-20
      1.77876919e-20 8.41760368e-07 4.22448602e-06 5.66554218e-06
      -5.96270593e-06 3.45157609e-08 1.15081939e-05 2.26522607e-05
      -8.81850065e-06 -1.60188101e-05 -2.99322414e-06 -1.44833436e-07
      1.77876919e-20 1.77876919e-20 1.77876919e-20 1.77876919e-20
      1.77876919e-20 1.77876919e-20 -4.36966293e-05 -8.33359663e-05
      -8.74712059e-05 -5.36020016e-05 3.47373934e-05 6.56370321e-05
      7.82402567e-05 8.10644124e-05 2.98157775e-05 1.77876919e-20
      1.77876919e-20 1.77876919e-20 1.77876919e-20 1.77876919e-20
      1.77876919e-20 -6.43769599e-05 -9.61943952e-05 -9.73530623e-05
      -7.05006096e-05 -3.62157807e-05 -1.91102972e-05 2.55895684e-05
      7.95243832e-05 9.56064541e-05 9.73530623e-05 6.30533032e-05
      1.53786805e-05 3.32601280e-06 1.77876919e-20 1.77876919e-20
      -7.06546198e-05 -8.17755426e-05 -9.68220047e-05 -9.73530623e-05
      -6.98029107e-05 -3.34034339e-05 -1.95667253e-05 -3.47600235e-06
      2.29571015e-07 2.50032481e-05 7.44294157e-05 9.59526078e-05
      9.73530623e-05 7.17496514e-05 1.90549454e-05 2.25640747e-06
      -9.73530623e-05 -9.73530623e-05 -9.73530623e-05 -6.30682334e-05
      -2.87161911e-05 -1.38107589e-05 -1.03797292e-05 -3.47600235e-06
      1.77876919e-20 1.77876919e-20 3.82618367e-07 1.43987199e-05
      7.51645712e-05 9.73530623e-05 9.73530623e-05 8.61469161e-05
      -9.73530623e-05 -9.73530623e-05 -9.73530623e-05 -6.30682334e-05
      -2.87161911e-05 -1.38107589e-05 -1.03797292e-05 -3.47600235e-06
      1.77876919e-20 2.29571015e-07 2.11707743e-06 1.69010764e-05
      6.84265833e-05 9.73530623e-05 9.54655552e-05 6.44405300e-05
      -9.15597266e-05 -9.35873904e-05 -9.68220047e-05 -9.73530623e-05
      -6.98029107e-05 -3.34034339e-05 -1.95667253e-05 -3.47600235e-06
      1.82381416e-06 5.63437015e-06 4.28862331e-05 9.60726757e-05
      9.71234913e-05 4.83506519e-05 1.97844292e-05 8.73941872e-07
      1.77876919e-20 -6.43769599e-05 -9.61943952e-05 -9.73530623e-05
      -7.05006096e-05 -3.62157807e-05 -2.08791535e-05 1.68224306e-05
      6.36533296e-05 9.56064541e-05 9.73530623e-05 7.48429084e-05
      1.74303568e-05 1.09163011e-06 1.77876919e-20 1.77876919e-20
      1.77876919e-20 -1.04243645e-05 -6.78029537e-05 -9.39131060e-05
      -9.48401939e-05 -5.12262268e-05 2.91652523e-05 6.56370321e-05
      8.29397177e-05 8.15486710e-05 5.03973679e-05 1.77876919e-20
      1.77876919e-20 1.77876919e-20 1.77876919e-20 1.77876919e-20
      1.77876919e-20 1.77876919e-20 8.40464793e-07 -2.41210437e-05
      -1.33316917e-05 9.37448590e-07 9.35040771e-06 2.99323056e-05
      -3.09246343e-06 -9.64332594e-06 -2.99322414e-06 -1.44833436e-07
      1.77876919e-20 1.77876919e-20 1.77876919e-20 1.77876919e-20
      2.69352472e-06 1.58069615e-05 5.69108961e-05 9.64836509e-05
      9.58253295e-05 6.56692646e-05 -1.84051387e-05 -9.73530623e-05
      -9.73530623e-05 -3.73182957e-05 -1.09107850e-05 -8.97967220e-06
      -4.15189152e-06 1.77876919e-20 1.77876919e-20 1.77876919e-20
      3.47184105e-05 9.36415163e-05 9.70520850e-05 9.22774416e-05
      3.86438587e-05 1.77876919e-20 1.77876919e-20 -7.77334844e-06
      -7.77450405e-05 -9.37345394e-05 -9.73530623e-05 -9.51952752e-05
      -6.20204373e-05 -1.55127163e-05 -5.80226424e-06 -3.86222467e-07
      4.37789422e-05 8.00645648e-05 5.37445521e-05 9.32540024e-06
      1.77876919e-20 1.77876919e-20 1.77876919e-20 1.77876919e-20
      1.77876919e-20 1.77876919e-20 -4.78280890e-06 -4.79620066e-05
      -8.45847389e-05 -9.73530623e-05 -8.43789530e-05 -4.63965989e-05</_>
    <_>
      4.37086492e-05 6.08182854e-05 8.96071506e-05 1.02881779e-04
      1.07170250e-04 1.07170250e-04 1.07170250e-04 1.07170250e-04
      1.07170250e-04 1.07170250e-04 7.98310793e-05 4.02340411e-05
      3.62003993e-05 3.17616796e-05 1.29363852e-05 4.64837422e-06
      1.07170250e-04 1.07170250e-04 1.07170250e-04 1.07170250e-04
      1.07170250e-04 1.07170250e-04 1.07170250e-04 1.06878586e-04
      7.46702790e-05 1.84941418e-05 2.01023295e-06 1.64060268e-07
      2.18747027e-06 1.38954456e-05 6.97799187e-05 1.03953877e-04
      1.07170250e-04 1.07170250e-04 1.07170250e-04 1.07170250e-04
      1.03060658e-04 4.32154593e-05 0. 0. -6.58062902e-07 1.19643391e-06
      1.29455211e-05 2.90273838e-05 6.92320391e-05 9.62403210e-05
      5.05049538e-05 2.25372805e-05 1.07170250e-04 1.07170250e-04
      1.07170250e-04 5.62996975e-05 0. 0. 8.74988075e-07 4.64837422e-06
      -1.75388675e-06 -2.47595126e-05 -2.49268869e-05 -1.20613970e-06
      -2.71050543e-20 -2.71050543e-20 -2.71050543e-20 -2.71050543e-20
      1.07170250e-04 1.07170250e-04 1.03961960e-04 5.42762864e-05 0.
      1.44008459e-06 4.64837422e-06 4.64837422e-06 9.50341746e-06
      1.02185377e-05 -2.71050543e-20 -2.71050543e-20 -2.71050543e-20
      -2.71050543e-20 -2.71050543e-20 -2.71050543e-20 1.07170250e-04
      6.80167650e-05 9.64911760e-06 0. 2.04163894e-06 4.64837422e-06
      2.07302364e-05 7.82228963e-05 8.34799866e-05 2.62091562e-05
      -2.71050543e-20 -2.71050543e-20 -2.71050543e-20 -2.71050543e-20
      -2.71050543e-20 -2.71050543e-20 4.82455871e-05 3.13596320e-05
      4.42251212e-06 0. 2.02340993e-06 4.64837422e-06 2.07302364e-05
      7.82228963e-05 8.34799866e-05 2.63004004e-05 -2.71050543e-20
      -2.71050543e-20 -2.71050543e-20 -2.71050543e-20 -2.71050543e-20
      -2.71050543e-20 0. 0. 0. 2.60673528e-06 4.64837422e-06
      4.64837422e-06 2.07302364e-05 7.82228963e-05 8.38090200e-05
      2.63004004e-05 -2.71050543e-20 -2.71050543e-20 -2.71050543e-20
      -2.71050543e-20 -2.71050543e-20 -2.71050543e-20 0. 0. 0.
      2.60673528e-06 4.64837422e-06 4.64837422e-06 2.07302364e-05
      7.82228963e-05 8.38090200e-05 2.63004004e-05 -2.71050543e-20
      -2.71050543e-20 -2.71050543e-20 -2.71050543e-20 -2.71050543e-20
      -2.71050543e-20 4.82455871e-05 3.13596320e-05 4.42251212e-06 0.
      2.02340993e-06 4.64837422e-06 2.07302364e-05 7.82228963e-05
      8.34799866e-05 2.63004004e-05 -2.71050543e-20 -2.71050543e-20
      -2.71050543e-20 -2.71050543e-20 -2.71050543e-20 -2.71050543e-20
      1.07170250e-04 6.80167650e-05 9.64911760e-06 0. 2.04163894e-06
      4.64837422e-06 2.07302364e-05 7.82228963e-05 8.34799866e-05
      2.62091562e-05 -2.71050543e-20 -2.71050543e-20 -2.71050543e-20
      -2.71050543e-20 -2.71050543e-20 -2.71050543e-20 1.07170250e-04
      7.50065228e-05 1.95321809e-05 5.22660548e-06 0. 1.44008459e-06
      4.64837422e-06 4.64837422e-06 9.50341746e-06 1.02185377e-05
      -2.71050543e-20 -2.71050543e-20 -2.71050543e-20 -2.71050543e-20
      -2.71050543e-20 -2.71050543e-20 1.07170250e-04 1.07170250e-04
      1.07170250e-04 5.62996975e-05 0. 0. 7.10927850e-07 3.82807275e-06
      -1.80857342e-06 -2.47595126e-05 -2.49268869e-05 -1.20613970e-06
      -2.71050543e-20 -2.71050543e-20 -2.71050543e-20 -2.71050543e-20
      1.07170250e-04 1.07170250e-04 1.07170250e-04 1.07170250e-04
      1.03953877e-04 4.54211586e-05 2.13278349e-06 0. -2.33612318e-05
      -6.72421083e-05 -6.83252438e-05 -5.22433802e-05 -1.20387240e-05
      2.25372805e-05 9.85435781e-06 -2.71050543e-20 1.07170250e-04
      1.07170250e-04 1.07170250e-04 1.07170250e-04 1.07170250e-04
      1.07170250e-04 1.07170250e-04 1.06878586e-04 7.38661838e-05
      1.60818636e-05 0. 1.64060268e-07 2.18747027e-06 1.38954456e-05
      6.97799187e-05 1.03953877e-04 3.42192689e-05 6.15482350e-05
      1.02563812e-04 1.07170250e-04 1.07170250e-04 1.07170250e-04
      1.07170250e-04 1.07170250e-04 1.07170250e-04 1.07170250e-04
      7.98310793e-05 4.02340411e-05 1.73042099e-05 0. 6.01554291e-07
      3.19006085e-06</_>
    <_>
      1.88922422e-05 3.13769306e-05 4.84652701e-05 4.95666281e-05
      4.95666281e-05 4.95666281e-05 4.95666281e-05 4.95666281e-05
      4.95666281e-05 4.18607087e-05 3.18545754e-05 2.35247680e-05
      1.11907439e-05 9.02864599e-07 3.99091005e-06 2.07127759e-05
      7.39068446e-06 2.35994776e-05 4.46047525e-05 4.79126684e-05
      4.95666281e-05 4.95666281e-05 4.95666281e-05 4.36434530e-05
      1.00134275e-05 2.12264126e-06 1.53390722e-08 7.31039165e-07
      9.74718841e-06 2.07833364e-05 3.69518530e-05 4.95420863e-05
      6.77626358e-21 6.77626358e-21 3.30791721e-07 3.63870890e-06
      1.87177406e-07 -9.35057142e-06 -7.44932368e-06 -1.73898457e-07
      -5.79661545e-08 1.83550837e-05 2.58656310e-05 4.12900954e-05
      4.93027947e-05 4.95666281e-05 4.95666281e-05 4.95666281e-05
      6.77626358e-21 6.77626358e-21 -6.60507283e-07 -1.93303440e-05
      -3.74573283e-05 -4.84657830e-05 -4.56677517e-05 -1.90599349e-05
      1.10507735e-05 3.33248390e-05 4.93764237e-05 4.95574241e-05
      4.95666281e-05 4.95666281e-05 4.95666281e-05 4.95666281e-05
      6.77626358e-21 6.77626358e-21 -1.60572290e-05 -4.03457088e-05
      -4.95666281e-05 -4.31497283e-05 -2.88538522e-05 -1.37758761e-05
      3.39241742e-05 4.94439155e-05 4.95666281e-05 4.95666281e-05
      4.95666281e-05 4.95666281e-05 4.95666281e-05 4.95666281e-05
      6.77626358e-21 -2.94133370e-05 -4.94929991e-05 -4.95666281e-05
      -4.04692510e-05 -2.88538522e-05 -1.48604868e-05 6.71083717e-06
      3.91122012e-05 4.95666281e-05 4.95666281e-05 4.95666281e-05
      4.95666281e-05 4.95666281e-05 4.95666281e-05 4.95666281e-05
      -2.46496365e-05 -3.54566873e-05 -4.95328823e-05 -4.95666281e-05
      -4.05504798e-05 -2.88538522e-05 -1.29890495e-05 9.57303564e-06
      3.97727090e-05 4.95666281e-05 4.95666281e-05 4.95666281e-05
      4.95666281e-05 4.95666281e-05 4.95666281e-05 4.95666281e-05
      -4.95666281e-05 -4.95666281e-05 -4.95666281e-05 -3.79512276e-05
      -2.88538522e-05 -2.88538522e-05 -1.29890495e-05 9.57303564e-06
      3.97727090e-05 4.95666281e-05 4.95666281e-05 4.95666281e-05
      4.95666281e-05 4.95666281e-05 4.95666281e-05 4.95666281e-05
      -4.95666281e-05 -4.95666281e-05 -4.95666281e-05 -3.79512276e-05
      -2.88538522e-05 -2.88538522e-05 -1.29890495e-05 9.57303564e-06
      3.97727090e-05 4.95666281e-05 4.95666281e-05 4.95666281e-05
      4.95666281e-05 4.95666281e-05 4.95666281e-05 4.95666281e-05
      -2.46496365e-05 -3.54566873e-05 -4.95328823e-05 -4.95666281e-05
      -4.05504798e-05 -2.88538522e-05 -1.29890495e-05 9.57303564e-06
      3.97727090e-05 4.95666281e-05 4.95666281e-05 4.95666281e-05
      4.95666281e-05 4.95666281e-05 4.95666281e-05 4.95666281e-05
      6.77626358e-21 -2.78721545e-05 -4.61904638e-05 -4.84657830e-05
      -4.04692510e-05 -2.88538522e-05 -1.48604868e-05 6.71083717e-06
      3.91122012e-05 4.95666281e-05 4.95666281e-05 4.95666281e-05
      4.95666281e-05 4.95666281e-05 4.95666281e-05 4.95666281e-05
      6.77626358e-21 -2.45425156e-07 -1.67014696e-05 -4.07199841e-05
      -4.95666281e-05 -4.31497283e-05 -2.88538522e-05 -1.37758761e-05
      3.39241742e-05 4.94439155e-05 4.95666281e-05 4.95666281e-05
      4.95666281e-05 4.95666281e-05 4.95666281e-05 4.95666281e-05
      6.77626358e-21 6.77626358e-21 6.77626358e-21 -1.20647637e-05
      -3.03018314e-05 -4.78052752e-05 -4.63987926e-05 -2.27151304e-05
      1.08070944e-05 3.33248390e-05 4.93764237e-05 4.95574241e-05
      4.95666281e-05 4.95666281e-05 4.95666281e-05 4.95666281e-05
      1.24514872e-05 2.84948856e-05 4.93347616e-05 4.93347616e-05
      4.82093747e-05 4.27229897e-05 2.00599297e-05 -1.73898457e-07
      -5.79661545e-08 1.68138995e-05 2.25630956e-05 4.01892503e-05
      4.93027947e-05 4.95666281e-05 4.95666281e-05 4.95666281e-05
      4.95666281e-05 4.95666281e-05 4.95666281e-05 4.95666281e-05
      4.95666281e-05 4.95666281e-05 4.95666281e-05 4.36434530e-05
      1.00072921e-05 2.10423445e-06 0. 7.31039165e-07 9.74718841e-06
      2.07833364e-05 3.50804148e-05 4.60193805e-05 1.88922422e-05
      3.13769306e-05 4.84652701e-05 4.95666281e-05 4.95666281e-05
      4.95666281e-05 4.95666281e-05 4.95666281e-05 4.95666281e-05
      4.95666281e-05 4.82571704e-05 2.89189120e-05 1.10465562e-05
      6.60507283e-07 -6.26058454e-06 -1.51517463e-06</_>
    <_>
      0. 0. 0. 0. 0. 0. 2.78373500e-06 7.25053769e-06 4.33444875e-05
      5.13242740e-05 7.65369405e-05 4.18836134e-05 -3.14816716e-05
      -2.01477778e-05 1.50423739e-05 -1.35622049e-05 0. 0. 0. 0.
      2.21064329e-06 9.15692362e-06 5.18590095e-05 7.47756203e-05
      2.33659230e-05 -9.02839929e-06 -1.40672846e-05 -1.69845691e-06
      2.53199378e-05 5.93345394e-05 8.99547958e-05 5.74515761e-05 0. 0.
      0. 4.21854929e-06 1.74797278e-05 2.53680246e-05 1.90161918e-05
      -1.52759076e-05 -5.16807595e-05 -4.49820800e-05 -2.71029767e-05
      6.73861359e-05 1.06616084e-04 1.12169808e-04 1.12169808e-04
      5.68183750e-05 0. 0. 2.99778299e-06 -1.15475796e-05
      -6.21319123e-06 1.03777666e-06 -1.03008842e-05 -1.52754073e-05
      -5.08175326e-05 -3.38749924e-05 -4.00384624e-06 8.71113589e-05
      1.12169808e-04 1.12169808e-04 1.12169808e-04 2.98388804e-05 0.
      -4.69885708e-06 -3.31888077e-05 -3.13881901e-05 -7.72599378e-06
      1.56091960e-06 -1.40878165e-05 -5.23681156e-05 -2.16485150e-05
      -2.58312662e-06 0. 8.73050885e-05 1.12169808e-04 1.12169808e-04
      7.35308713e-05 4.13039788e-06 0. -5.74950682e-05 -5.33740640e-05
      -2.02158590e-05 1.89218390e-05 1.89949278e-05 4.45296610e-06
      -7.60360990e-06 -8.18007322e-07 0. 4.42128658e-06 9.53703930e-05
      1.12169808e-04 1.11893474e-04 2.90365333e-05 5.90716525e-07
      -7.34722562e-05 -6.92033864e-05 -2.35655280e-05 0. 1.09821103e-05
      -5.87650902e-06 -2.77877443e-05 -4.64962795e-06 0. 6.07926893e-07
      1.44269325e-05 9.89486871e-05 1.12169808e-04 8.88699215e-05
      1.50082287e-05 0. -1.04459046e-04 -4.03010345e-05 0.
      2.45734554e-05 2.96047347e-05 -4.93531879e-05 -2.91537763e-05
      -4.64962795e-06 0. 2.65277185e-06 6.40381259e-05 1.12169808e-04
      1.12169808e-04 4.25791659e-05 1.77214963e-06 0. -6.98826552e-05
      -1.62332235e-05 0. 1.55715807e-05 3.52376674e-06 -5.10884165e-05
      -2.91537763e-05 -4.64962795e-06 5.52660822e-07 9.65012259e-06
      8.99551160e-05 1.12169808e-04 7.90107661e-05 1.95286011e-05
      7.38395670e-07 0. -1.28146812e-05 2.22152521e-05 7.10359814e-07
      -1.52206412e-05 -6.78989745e-05 -5.23067683e-05 -2.91537763e-05
      -4.64962795e-06 8.84257304e-07 6.38771962e-05 1.07329150e-04
      1.12169808e-04 5.58370302e-05 2.95358268e-06 0. 0. 6.23529631e-05
      5.00366041e-05 1.38442454e-06 -2.63650327e-05 -8.55576582e-05
      -6.83500111e-05 -3.89896340e-05 -8.19432626e-06 1.41553153e-06
      8.51309596e-05 1.12169808e-04 1.11970185e-04 4.98747540e-05
      7.89475450e-07 1.23780810e-05 4.10943139e-05 7.01075187e-05
      1.02304701e-04 4.42508135e-05 -5.11248800e-05 -1.05471649e-04
      -9.85942606e-05 -5.97125909e-05 -3.77684009e-05 5.31471196e-05
      1.09586683e-04 1.12169808e-04 9.86175219e-05 1.51070790e-05
      4.29911306e-05 1.07447981e-04 1.05781284e-04 1.12169808e-04
      1.12169808e-04 1.00184421e-04 -1.83405355e-05 -8.41363217e-05
      -1.05112915e-04 -7.22142722e-05 1.27869516e-05 5.13170016e-05
      7.82948191e-05 1.06673775e-04 9.92167261e-05 5.23713315e-05
      9.21896353e-05 1.11986155e-04 5.09850979e-05 8.96476704e-05
      1.12169808e-04 1.04665734e-04 6.47649285e-05 2.76819610e-05
      1.73217722e-06 1.03934372e-05 -1.79727631e-05 -1.06955331e-05
      3.65111373e-05 4.89168924e-05 7.89299884e-05 1.04696257e-04
      1.11762580e-04 6.72432070e-05 7.76891738e-06 5.98455044e-05
      8.78269639e-05 1.10953952e-04 1.08190652e-04 9.81547710e-05
      9.72669150e-05 9.11690950e-05 3.67340508e-05 -1.24930375e-05
      4.75767729e-06 0. 1.54658107e-06 2.48807701e-05 8.33162449e-06
      -1.52158009e-05 -4.69473207e-06 6.06799631e-06 2.17745983e-05
      5.10815371e-05 7.40747782e-05 7.46896185e-05 6.41216830e-05
      4.83636468e-05 3.88737681e-06 7.28452733e-06 8.60311993e-05
      1.03560487e-04 5.61711786e-05 -3.30612165e-05 -1.04764316e-04
      -8.93532488e-05 -5.18920133e-05</_>
    <_>
      1.35525272e-20 1.35525272e-20 1.35525272e-20 1.35525272e-20
      1.35525272e-20 1.35525272e-20 1.35525272e-20 4.30974433e-05
      5.52009915e-05 -3.26956547e-06 -1.62082051e-05 -4.13093076e-05
      -4.17204610e-05 -8.20088608e-05 -1.00004596e-04 -5.42406269e-05
      1.35525272e-20 1.35525272e-20 1.35525272e-20 1.35525272e-20
      1.35525272e-20 1.35525272e-20 1.21360908e-05 6.39386199e-05
      -1.39658205e-05 -7.48792663e-05 -7.68613972e-05 -7.16200084e-05
      -4.33465939e-05 -2.70237342e-05 -2.22854487e-05 -9.70911287e-07
      1.35525272e-20 1.35525272e-20 1.35525272e-20 1.35525272e-20
      -1.32188043e-05 -5.71720702e-05 -4.08218948e-05 -5.07591321e-05
      -5.07591321e-05 1.62718152e-05 -7.77314017e-06 1.75886398e-05
      4.03218328e-05 4.38419047e-05 1.35525272e-20 1.35525272e-20
      1.35525272e-20 1.35525272e-20 -8.77222192e-07 -5.59103246e-05
      -1.08277811e-04 -1.22898186e-04 -4.01933939e-05 -5.81902386e-05
      1.69248142e-05 8.36639956e-05 2.57942593e-05 3.89145025e-05
      5.07591321e-05 2.69490483e-05 1.35525272e-20 1.35525272e-20
      1.35525272e-20 1.35525272e-20 -4.10802932e-05 -9.62797931e-05
      -1.24360216e-04 -5.72919889e-05 -9.16511726e-06 -6.12119620e-05
      5.93808691e-05 1.14465212e-04 5.10081118e-05 3.42306630e-05
      5.07591321e-05 2.69490483e-05 1.35525272e-20 1.35525272e-20
      1.35525272e-20 -7.26195794e-05 -1.21447483e-04 -1.24360216e-04
      -9.97068346e-05 -2.92823120e-06 -1.16724641e-05 1.03854427e-05
      8.70129079e-05 7.36010843e-05 5.25678151e-05 3.16498117e-05
      5.07591321e-05 2.69490483e-05 1.35525272e-20 1.35525272e-20
      -7.71931227e-05 -9.64721621e-05 -1.23025209e-04 -1.24360216e-04
      -8.23669470e-05 5.97967619e-06 -2.29403158e-05 3.36824342e-05
      2.83295212e-05 7.36010843e-05 7.36010843e-05 3.18488674e-05
      5.07591321e-05 2.69490483e-05 1.35525272e-20 1.35525272e-20
      -1.24360216e-04 -1.24360216e-04 -1.24360216e-04 -9.28831287e-05
      -4.45151127e-05 2.09853570e-05 1.05681856e-05 2.95859099e-05
      1.35525272e-20 3.50100963e-05 7.36010843e-05 5.06004071e-05
      5.07591321e-05 2.69490483e-05 1.35525272e-20 1.35525272e-20
      -1.24360216e-04 -1.24360216e-04 -1.24360216e-04 -9.28831287e-05
      6.99356133e-06 -9.27517431e-06 1.40727707e-05 5.37976757e-06
      1.35525272e-20 2.98228606e-05 7.36010843e-05 7.69829712e-05
      5.07591321e-05 2.69490483e-05 1.35525272e-20 1.35525272e-20
      -8.94267432e-05 -1.03384431e-04 -1.23025209e-04 -1.21593694e-04
      -2.03809432e-05 2.43564227e-05 5.68537689e-05 7.54836001e-05
      8.42218069e-05 1.02737620e-04 1.10028224e-04 1.15659175e-04
      5.35256549e-05 2.69490483e-05 1.35525272e-20 1.35525272e-20
      1.35525272e-20 -7.13407571e-05 -1.18707147e-04 -6.27864210e-05
      1.55898033e-05 2.35046264e-05 1.68419410e-05 4.78161310e-05
      5.83812216e-05 5.89292868e-05 9.74877330e-05 1.04057181e-04
      1.11419482e-04 3.62557585e-05 1.35525272e-20 1.35525272e-20
      1.35525272e-20 -1.35492619e-05 -7.41621261e-05 -2.28822810e-05
      -2.19067388e-05 -8.00217240e-05 -6.82297396e-05 -6.12119620e-05
      -2.93487374e-05 -4.85455666e-06 2.40380232e-05 8.60361033e-05
      1.19731259e-04 4.43893587e-05 1.35525272e-20 1.35525272e-20
      1.35525272e-20 1.35525272e-20 1.16334795e-05 7.44786230e-05
      -6.96802235e-05 -1.22350117e-04 -1.15775554e-04 -7.71476552e-05
      -5.93924269e-05 -3.35041477e-05 -7.52456253e-06 8.57502237e-05
      1.24360216e-04 5.42189628e-05 6.04238721e-07 1.35525272e-20
      1.35525272e-20 2.42443753e-06 8.82726308e-05 1.24360216e-04
      9.37815855e-07 -3.05376088e-05 -8.42782683e-05 -1.24360216e-04
      -1.24360216e-04 -7.27060979e-05 -4.92595609e-05 6.09979725e-05
      1.13922921e-04 6.55648983e-05 3.86712782e-06 1.35525272e-20
      4.15718750e-05 8.90665106e-05 1.24360216e-04 1.24360216e-04
      8.27459589e-05 2.82896381e-05 1.35525272e-20 -9.66246716e-06
      -8.78096325e-05 -1.14918803e-04 -4.92109357e-05 -2.41122852e-05
      3.02544904e-05 7.03874321e-05 6.16471007e-05 3.57180943e-05
      8.55086182e-05 1.12550857e-04 8.50585129e-05 8.50585129e-05
      8.50585129e-05 6.64035470e-05 1.35525272e-20 1.35525272e-20
      1.35525272e-20 4.47147140e-05 8.42589070e-05 3.32018026e-05
      2.66202051e-06 -1.76999438e-05 -3.08906647e-06 1.09454477e-05</_>
    <_>
      1.35525272e-20 1.35525272e-20 1.35525272e-20 1.35525272e-20
      2.02248902e-05 3.84632986e-05 3.84632986e-05 3.92993643e-05
      6.78282813e-05 8.49042626e-05 1.74686484e-05 -4.79714872e-05
      -6.52446470e-05 -7.58603856e-05 -7.07531726e-05 -4.90338971e-05
      1.35525272e-20 1.35525272e-20 1.35525272e-20 4.15249524e-05
      9.11148236e-05 9.11148236e-05 9.11148236e-05 8.29767960e-05
      3.23172244e-05 7.58740725e-06 -4.13171765e-05 -9.02427637e-05
      -7.47184313e-05 -4.97857254e-05 -2.05224642e-05 -8.28539896e-07
      1.35525272e-20 1.35525272e-20 1.35525272e-20 1.35525272e-20
      -7.14491625e-06 7.37340133e-06 1.53713154e-05 0. 0. 1.43924944e-05
      -5.61879351e-05 -3.02430635e-05 -8.90680349e-06 1.35525272e-20
      1.35525272e-20 1.35525272e-20 1.35525272e-20 1.35525272e-20
      -9.41100893e-07 -3.67331450e-05 -7.38613089e-05 -4.66094789e-05
      4.65097946e-06 2.47083281e-05 2.65562430e-05 -2.81821631e-05
      -6.42118403e-06 -3.10702461e-07 1.35525272e-20 1.35525272e-20
      1.35525272e-20 1.35525272e-20 1.35525272e-20 1.35525272e-20
      -1.95631928e-05 -6.45852051e-05 -9.11148236e-05 7.65473669e-06
      2.47083281e-05 3.22371343e-05 2.20799957e-05 -4.14269925e-06
      1.35525272e-20 1.35525272e-20 1.35525272e-20 1.35525272e-20
      1.35525272e-20 1.35525272e-20 1.35525272e-20 -4.67385034e-05
      -8.86292037e-05 -9.11148236e-05 -3.80731690e-05 2.47083281e-05
      4.97723195e-05 8.13511870e-05 1.32087706e-07 3.43729116e-05
      5.70449010e-05 5.70449010e-05 5.70449010e-05 2.33364117e-05
      1.35525272e-20 1.35525272e-20 -4.37091439e-05 -6.32734445e-05
      -8.99755833e-05 -6.26173132e-05 -2.31381164e-05 2.67521627e-05
      5.22343871e-05 8.36579638e-05 5.65400405e-05 9.07161739e-05
      6.22186562e-05 9.07161739e-05 9.11148236e-05 9.11148236e-05
      9.11148236e-05 1.40018465e-05 -9.11148236e-05 -9.11148236e-05
      -9.11148236e-05 -2.97875376e-05 3.01585551e-05 4.09908826e-05
      5.89109150e-05 6.02385408e-05 4.36435803e-05 1.35525272e-20
      1.35525272e-20 1.35525272e-20 4.15249524e-05 9.11148236e-05
      9.11148236e-05 9.11148236e-05 -9.11148236e-05 -9.11148236e-05
      -4.83108633e-05 1.38560426e-05 3.01585551e-05 4.09908826e-05
      4.06725085e-05 -2.92246114e-06 1.35525272e-20 1.35525272e-20
      1.35525272e-20 1.35525272e-20 1.35525272e-20 9.11148236e-05
      9.11148236e-05 9.11148236e-05 -5.89016527e-05 -3.03325996e-05
      -1.24639519e-05 0. 1.14366685e-05 -1.47727878e-05 -3.88804365e-05
      -7.45685884e-06 1.35525272e-20 1.35525272e-20 1.35525272e-20
      1.35525272e-20 4.15249524e-05 9.11148236e-05 9.11148236e-05
      9.11148236e-05 1.35525272e-20 2.29464440e-05 5.14728890e-06
      8.87223109e-07 3.03582374e-06 -1.75640980e-05 -4.13425041e-05
      -9.76363935e-06 -5.32333843e-07 1.35525272e-20 1.35525272e-20
      7.81646122e-06 6.84428378e-05 9.11148236e-05 9.11148236e-05
      4.95898748e-05 4.15249524e-05 7.80604751e-05 3.96514115e-05
      1.04879973e-05 -4.20121942e-05 -8.34600869e-05 -6.64065010e-05
      -5.88776893e-05 -2.65852250e-05 -4.14269925e-06 1.35525272e-20
      4.29368483e-05 9.11148236e-05 9.11148236e-05 8.85093395e-05
      3.15518519e-05 4.90822822e-05 9.11148236e-05 9.07060603e-05
      2.13178882e-05 -2.74737104e-05 -8.90139927e-05 -8.73359022e-05
      -6.95404888e-05 -5.69298099e-05 -3.20605905e-05 4.14675051e-05
      9.08041256e-05 9.11148236e-05 9.11148236e-05 4.06206491e-05
      1.35525272e-20 9.10705276e-05 9.11148236e-05 9.11148236e-05
      8.32983642e-05 -2.39704150e-06 -2.38391021e-05 -6.44067477e-05
      -9.11148236e-05 -9.11148236e-05 2.60637771e-05 4.65039411e-05
      6.47534907e-05 4.84995326e-05 1.55576072e-06 1.35525272e-20
      1.35525272e-20 5.24152747e-05 9.11148236e-05 9.11148236e-05
      9.11148236e-05 8.02244977e-05 2.95993468e-05 2.95993468e-05
      2.14613156e-05 2.15298260e-05 6.96600227e-06 0. -4.17547235e-05
      -6.41381630e-05 -4.97857254e-05 -2.20307447e-05 -3.66765380e-06
      1.35525272e-20 3.84632986e-05 3.84632986e-05 9.11148236e-05
      9.11148236e-05 9.11148236e-05 6.78282813e-05 6.78282813e-05
      6.69922229e-05 2.02248902e-05 1.06292000e-05 -4.80524031e-05
      -7.66525918e-05 -9.05824927e-05 -7.94473672e-05 -5.91005155e-05</_>
    <_>
      4.65200856e-06 4.09455497e-05 4.74716217e-05 4.74716217e-05
      8.60354994e-05 9.73893330e-05 9.73893330e-05 9.73893330e-05
      9.73893330e-05 7.27399165e-05 5.16002074e-05 2.31611812e-05
      -1.01782462e-05 -4.20263241e-05 -6.95157505e-05 -5.01393370e-05
      6.98876556e-06 2.78302632e-05 4.33105233e-05 4.74716217e-05
      4.74716217e-05 6.77830321e-05 7.54842258e-05 4.11489164e-05
      -6.86902858e-05 -6.66474734e-05 -5.55827755e-05 -4.92484614e-05
      -2.00479462e-05 4.04939128e-05 3.20011277e-05 1.98911403e-05
      -2.71050543e-20 -2.71050543e-20 1.43689986e-05 4.74716217e-05
      3.65428241e-05 -8.67594736e-06 -3.39287362e-05 -4.74716217e-05
      -9.26911962e-05 -5.70987540e-05 -4.20879405e-05 -9.20120146e-06
      4.24464561e-05 9.58232922e-05 9.22795662e-05 4.84889824e-05
      -2.71050543e-20 -2.71050543e-20 1.35398423e-05 4.65669245e-06
      -3.47165151e-05 -6.45295586e-05 -3.85775020e-05 -4.91975879e-06
      -4.76267523e-05 -2.73206315e-05 -3.62279252e-06 2.58607588e-06
      4.74716217e-05 9.58232922e-05 9.49347814e-05 4.57680180e-05
      -2.71050543e-20 -2.71050543e-20 -2.04538483e-05 -3.09739589e-05
      -4.99177149e-05 -5.12732513e-05 -2.21620908e-07 -4.35060865e-05
      -1.73847639e-05 -2.33728565e-06 -2.71050543e-20 2.76137234e-06
      4.82546420e-05 9.60190446e-05 9.49347814e-05 2.63882011e-05
      -2.71050543e-20 -5.89754927e-05 -8.16179672e-05 -4.99177149e-05
      -2.91647739e-05 1.89286754e-06 1.95279463e-05 -7.80012397e-06
      -8.29156249e-07 -2.71050543e-20 1.77955098e-06 1.56477763e-05
      8.81888118e-05 9.62234190e-05 7.07592117e-05 -2.71050543e-20
      -5.95605052e-05 -7.54193461e-05 -8.23775845e-05 -4.99177149e-05
      -1.38853638e-05 7.76553952e-06 2.18772220e-05 1.92835760e-05
      2.34906893e-05 3.71748247e-05 4.59431394e-05 7.59734903e-05
      9.69597895e-05 3.89901252e-05 5.87267232e-06 -2.71050543e-20
      -9.73893330e-05 -9.73893330e-05 -8.30203353e-05 -2.34206564e-05
      3.02192493e-05 4.72499996e-05 6.93488400e-05 9.31822215e-05
      9.73893330e-05 9.73893330e-05 9.73893330e-05 9.73893330e-05
      2.51526453e-05 -2.71050543e-20 -2.71050543e-20 -2.71050543e-20
      -9.73893330e-05 -9.73893330e-05 -8.30203353e-05 -2.34206564e-05
      4.45094192e-05 1.66632944e-05 9.93612139e-06 3.62311584e-06
      7.83023006e-06 7.83023006e-06 3.65710875e-05 9.12645919e-05
      9.62147969e-05 3.38659847e-05 4.97046994e-06 -2.71050543e-20
      -5.95605052e-05 -7.54193461e-05 -8.23775845e-05 -4.99177149e-05
      2.05676461e-05 7.76553952e-06 -1.12054986e-05 -4.20711376e-06
      -2.71050543e-20 -2.71050543e-20 -2.71050543e-20 8.02598515e-06
      7.35526482e-05 9.73893330e-05 4.74716217e-05 1.24053568e-05
      -2.71050543e-20 -5.70407938e-05 -7.74721848e-05 -6.44830288e-06
      2.07529411e-05 2.67589053e-06 -3.03897687e-05 -7.80012397e-06
      -8.29156249e-07 -2.71050543e-20 -2.71050543e-20 -2.71050543e-20
      6.02980654e-05 9.73893330e-05 5.84339432e-05 3.32468553e-05
      -2.71050543e-20 -4.67457130e-06 -3.27245980e-05 3.98480461e-06 0.
      -4.81411589e-05 -5.01393370e-05 -4.35060865e-05 -1.73847639e-05
      -2.33728565e-06 -2.71050543e-20 -2.71050543e-20 5.04086238e-05
      8.94021723e-05 5.84339432e-05 4.74716217e-05 -2.71050543e-20
      -2.71050543e-20 1.53477777e-05 6.05630339e-05 2.41837242e-05
      -6.05683090e-05 -9.01628664e-05 -5.84775698e-05 -4.81826355e-05
      -2.73206315e-05 -3.62279252e-06 1.70512085e-05 6.85606792e-05
      9.23973566e-05 5.19740024e-05 3.62420396e-05 -2.71050543e-20
      -2.71050543e-20 1.59350457e-05 9.73893330e-05 9.55399519e-05
      -9.74604882e-06 -6.21670406e-05 -9.73893330e-05 -9.73893330e-05
      -5.90334530e-05 -3.87950022e-05 2.89143773e-05 7.15226706e-05
      8.38821870e-05 4.50170664e-05 2.88286592e-05 1.36841336e-05
      1.36841336e-05 9.16621939e-05 9.73893330e-05 9.73893330e-05
      4.42923447e-05 1.36841336e-05 4.91533456e-06 -5.98211518e-05
      -4.40359254e-05 -2.75817438e-05 -3.36911853e-06 1.46008197e-05
      -1.32377636e-06 1.02196191e-05 3.09753705e-06 5.59767504e-05
      9.73893330e-05 9.73893330e-05 9.73893330e-05 9.73893330e-05
      9.73893330e-05 9.73893330e-05 9.73893330e-05 9.73893330e-05
      9.73893330e-05 8.31976286e-05 -3.04597120e-06 -5.98470870e-05
      -8.45794348e-05 -8.38122214e-05 -5.16963664e-05</_>
    <_>
      -2.71050543e-20 -2.71050543e-20 -2.71050543e-20 -2.71050543e-20
      2.14739316e-06 2.54691895e-05 2.92545556e-05 8.33419253e-05
      9.83065693e-05 1.28320011e-04 1.87392608e-04 1.15301053e-04
      7.03103115e-06 -4.97368601e-05 -9.36114811e-05 -4.79537193e-05
      -2.71050543e-20 -2.71050543e-20 6.53766051e-07 3.91304820e-05
      7.98859983e-05 1.01692400e-04 1.33783251e-04 1.44762700e-04
      -3.23430431e-05 -6.14335659e-05 -2.63056208e-05 -9.58250894e-06
      7.39039242e-05 1.51062864e-04 1.07137850e-04 6.87309803e-05
      -2.71050543e-20 -2.71050543e-20 5.99202358e-05 8.46135226e-05
      9.41259786e-05 4.57797032e-05 -4.04855273e-05 -9.54758798e-05
      -1.27651496e-04 -4.33000714e-05 9.12936503e-06 7.72421772e-05
      1.72521264e-04 2.00784343e-04 1.70525585e-04 6.89477602e-05
      -2.71050543e-20 3.78464574e-05 8.78392821e-05 4.88128135e-05
      -3.16782680e-05 -6.79067525e-05 -6.55364784e-05 2.19398066e-06
      -3.32327727e-05 -3.03265570e-05 4.12414738e-06 7.66672383e-05
      1.09794011e-04 1.95554225e-04 1.96458219e-04 7.60165931e-05
      4.57636224e-06 6.56267512e-05 -8.99551105e-06 -1.17196796e-05
      -5.90291784e-05 -5.25155119e-05 4.33974350e-07 -3.98506636e-05
      -1.76003268e-05 -1.08389190e-06 1.25550503e-06 5.04756281e-05
      7.41512486e-05 8.46805269e-05 1.04801657e-04 7.62727086e-06
      3.12977063e-05 -4.29816573e-05 -2.89975742e-05 -2.94194724e-05
      -3.60982849e-05 3.36911289e-05 -1.80163198e-07 -3.50771029e-06
      -3.59239607e-07 -2.71050543e-20 -2.71050543e-20 -2.71050543e-20
      -2.71050543e-20 1.06698590e-05 -2.71050543e-20 -2.71050543e-20
      -9.23635671e-05 -5.68001342e-05 -8.08381446e-06 -2.94194724e-05
      -2.05645247e-05 3.83886290e-05 -3.74318961e-06 -1.95100529e-06
      -2.71050543e-20 -2.71050543e-20 -2.71050543e-20 -2.71050543e-20
      -2.71050543e-20 -2.71050543e-20 -2.71050543e-20 -2.71050543e-20
      -1.08966982e-04 -1.77887450e-05 -5.23012841e-06 1.55712150e-05
      2.49913301e-05 -1.01088881e-05 -1.25317247e-05 -1.95100529e-06
      -2.71050543e-20 -2.71050543e-20 -2.71050543e-20 -2.71050543e-20
      -2.71050543e-20 -2.71050543e-20 -2.71050543e-20 -2.71050543e-20
      -6.89477602e-05 -6.48920104e-06 -3.26883037e-06 2.53777052e-05
      -4.48045830e-06 -2.41688231e-05 -1.25317247e-05 -1.95100529e-06
      -2.71050543e-20 -2.71050543e-20 -2.71050543e-20 -2.71050543e-20
      -2.71050543e-20 -2.71050543e-20 -2.71050543e-20 -2.71050543e-20
      1.46194463e-06 8.30570389e-06 2.98070262e-07 -4.32300258e-05
      -1.02860060e-04 -2.54243296e-05 -1.25317247e-05 -1.95100529e-06
      -2.71050543e-20 -2.71050543e-20 -2.71050543e-20 -2.71050543e-20
      -2.71050543e-20 -2.71050543e-20 -2.71050543e-20 -2.71050543e-20
      1.62865923e-04 6.68235516e-05 2.44653302e-06 -4.26312945e-05
      -9.57925877e-05 -7.39239331e-05 -3.62774190e-05 -3.50771029e-06
      -3.59239607e-07 -2.71050543e-20 -2.71050543e-20 1.89268358e-05
      6.67846980e-05 5.65101254e-05 -2.71050543e-20 1.19313681e-05
      1.14903953e-04 1.83330121e-04 7.30943939e-05 -1.36946346e-05
      -1.43979880e-04 -1.61482501e-04 -5.56604864e-05 -3.51318995e-05
      -1.15125094e-05 1.20307768e-05 7.08429288e-05 1.08966982e-04
      8.27583135e-05 5.81324275e-05 7.35396025e-05 8.96699712e-05
      4.00192221e-05 1.72970613e-04 1.97537520e-04 9.03815890e-05
      -2.82457095e-05 -1.54212117e-04 -1.76833491e-04 -8.81097003e-05
      -2.64669452e-05 5.64211441e-05 1.11835623e-04 1.13434362e-04
      9.89036416e-05 9.33305273e-05 9.18173682e-05 7.09245433e-05
      4.00192221e-05 8.14223749e-05 1.75140536e-04 2.00784343e-04
      1.77457143e-04 4.92730178e-05 -5.69877157e-05 -1.04337683e-04
      -7.28746527e-05 5.02516741e-05 6.84052211e-05 5.79094230e-05
